{"learner":{"attributes":{"scikit_learn":"{\"_estimator_type\": \"classifier\"}"},"feature_names":[],"feature_types":[],"gradient_booster":{"model":{"cats":{"enc":[],"feature_segments":[],"sorted_idx":[]},"gbtree_model_param":{"num_parallel_tree":"1","num_trees":"100"},"iteration_indptr":[0,1,2,3,4,5,6,7,8,9,10,11,12,13,14,15,16,17,18,19,20,21,22,23,24,25,26,27,28,29,30,31,32,33,34,35,36,37,38,39,40,41,42,43,44,45,46,47,48,49,50,51,52,53,54,55,56,57,58,59,60,61,62,63,64,65,66,67,68,69,70,71,72,73,74,75,76,77,78,79,80,81,82,83,84,85,86,87,88,89,90,91,92,93,94,95,96,97,98,99,100],"tree_info":[0,0,0,0,0,0,0,0,0,0,0,0,0,0,0,0,0,0,0,0,0,0,0,0,0,0,0,0,0,0,0,0,0,0,0,0,0,0,0,0,0,0,0,0,0,0,0,0,0,0,0,0,0,0,0,0,0,0,0,0,0,0,0,0,0,0,0,0,0,0,0,0,0,0,0,0,0,0,0,0,0,0,0,0,0,0,0,0,0,0,0,0,0,0,0,0,0,0,0,0],"trees":[{"base_weights":[-1.0068191E-2,1.3483917E0,-2.2529209E0,-2.3591347E-1,1.649709E-1,-2.3657176E0,1.34513E-1,-7.172914E-2,-2.3963295E-1],"categories":[],"categories_nodes":[],"categories_segments":[],"categories_sizes":[],"default_left":[0,0,0,0,0,0,0,0,0],"id":0,"left_children":[1,3,5,-1,-1,7,-1,-1,-1],"loss_changes":[1.1955043E3,2.768902E2,6.32511E1,0E0,0E0,5.5410767E0,0E0,0E0,0E0],"parents":[2147483647,0,0,1,1,2,2,5,5],"right_children":[2,4,6,-1,-1,8,-1,-1,-1],"split_conditions":[3.6E1,1E-1,6E-1,-2.3591347E-1,1.649709E-1,8.75E-2,1.34513E-1,-7.172914E-2,-2.3963295E-1],"split_indices":[0,9,13,0,0,3,0,0,0],"split_type":[0,0,0,0,0,0,0,0,0],"sum_hessian":[3.9037997E2,2.4337216E2,1.4700783E2,1.7779295E1,2.2559286E2,1.4287138E2,4.136443E0,3.050207E0,1.3982117E2],"tree_param":{"num_deleted":"0","num_feature":"23","num_nodes":"9","size_leaf_vector":"1"}},{"base_weights":[2.972625E-3,1.2684482E0,-1.9959768E0,-2.0629357E-1,1.5519604E-1,-2.0766802E0,1.215537E-1,-1.6646941E0,-2.1582031E-1,-2.0777953E-1,-5.147581E-3],"categories":[],"categories_nodes":[],"categories_segments":[],"categories_sizes":[],"default_left":[0,0,0,0,0,0,0,0,0,0,0],"id":1,"left_children":[1,3,5,-1,-1,7,-1,9,-1,-1,-1],"loss_changes":[9.7181854E2,2.2538834E2,4.1123657E1,0E0,0E0,1.2990112E0,0E0,1.8841194E1,0E0,0E0,0E0],"parents":[2147483647,0,0,1,1,2,2,5,5,7,7],"right_children":[2,4,6,-1,-1,8,-1,10,-1,-1,-1],"split_conditions":[3.6E1,1E-1,6E-1,-2.0629357E-1,1.5519604E-1,7.7938837E-1,1.215537E-1,3.8E1,-2.1582031E-1,-2.0777953E-1,-5.147581E-3],"split_indices":[0,9,13,0,0,11,0,0,0,0,0],"split_type":[0,0,0,0,0,0,0,0,0,0,0],"sum_hessian":[3.8217453E2,2.3424586E2,1.4792867E2,1.7879383E1,2.1636649E2,1.4464714E2,3.281531E0,2.7432665E1,1.1721448E2,2.1610758E1,5.8219075E0],"tree_param":{"num_deleted":"0","num_feature":"23","num_nodes":"11","size_leaf_vector":"1"}},{"base_weights":[6.118325E-2,1.1790589E0,-1.7682365E0,1.4421662E0,-1.7384909E-1,-1.4152768E0,-1.9272347E-1,1.474656E-1,3.9441687E-1,1.478193E-1,-1.9210525E-1,-6.399006E-2,1.1763638E-1],"categories":[],"categories_nodes":[],"categories_segments":[],"categories_sizes":[],"default_left":[0,0,0,0,0,0,0,0,0,0,0,0,0],"id":2,"left_children":[1,3,5,7,-1,9,-1,-1,11,-1,-1,-1,-1],"loss_changes":[7.659365E2,1.8093622E2,5.24527E0,6.695038E0,0E0,7.291884E1,0E0,0E0,7.0566254E0,0E0,0E0,0E0,0E0],"parents":[2147483647,0,0,1,1,2,2,3,3,5,5,8,8],"right_children":[2,4,6,8,-1,10,-1,-1,12,-1,-1,-1,-1],"split_conditions":[3.6E1,4.722222E-1,3.030303E-1,3.3333334E-1,-1.7384909E-1,6.4E1,-1.9272347E-1,1.474656E-1,2.4E1,1.478193E-1,-1.9210525E-1,-6.399006E-2,1.1763638E-1],"split_indices":[0,3,3,3,0,0,0,0,0,0,0,0,0],"split_type":[0,0,0,0,0,0,0,0,0,0,0,0,0],"sum_hessian":[3.7250998E2,2.3144183E2,1.4106813E2,2.1276057E2,1.8681252E1,4.6886375E1,9.418176E1,2.059663E2,6.7942815E0,6.6901813E0,4.0196194E1,3.003315E0,3.7909667E0],"tree_param":{"num_deleted":"0","num_feature":"23","num_nodes":"13","size_leaf_vector":"1"}},{"base_weights":[1.3444452E-2,1.1111387E0,-1.6270088E0,-1.7287111E-1,1.40406E-1,-1.6911097E0,1.0864772E-1,-8.3136074E-2,-1.7220643E-1],"categories":[],"categories_nodes":[],"categories_segments":[],"categories_sizes":[],"default_left":[0,0,0,0,0,0,0,0,0],"id":3,"left_children":[1,3,5,-1,-1,7,-1,-1,-1],"loss_changes":[6.617258E2,1.8556241E2,2.7462036E1,0E0,0E0,2.409027E0,0E0,0E0,0E0],"parents":[2147483647,0,0,1,1,2,2,5,5],"right_children":[2,4,6,-1,-1,8,-1,-1,-1],"split_conditions":[3.6E1,1E-1,6E-1,-1.7287111E-1,1.40406E-1,1E-1,1.0864772E-1,-8.3136074E-2,-1.7220643E-1],"split_indices":[0,9,13,0,0,3,0,0,0],"split_type":[0,0,0,0,0,0,0,0,0],"sum_hessian":[3.654753E2,2.1915344E2,1.4632185E2,2.0033037E1,1.991204E2,1.4331314E2,3.008721E0,5.9486904E0,1.3736444E2],"tree_param":{"num_deleted":"0","num_feature":"23","num_nodes":"9","size_leaf_vector":"1"}},{"base_weights":[5.319304E-3,1.3325926E0,-1.1283431E0,1.351357E-1,4.9931746E-2,-1.3328838E0,1.2892827E-1,-1.4508609E0,1.2194627E-1,-9.7926006E-2,-1.6457763E-1],"categories":[],"categories_nodes":[],"categories_segments":[],"categories_sizes":[],"default_left":[0,0,0,0,0,0,0,0,0,0,0],"id":4,"left_children":[1,3,5,-1,-1,7,-1,9,-1,-1,-1],"loss_changes":[5.25565E2,1.841095E0,9.487579E1,0E0,0E0,5.421881E1,0E0,1.3734253E1,0E0,0E0,0E0],"parents":[2147483647,0,0,1,1,2,2,5,5,7,7],"right_children":[2,4,6,-1,-1,8,-1,10,-1,-1,-1],"split_conditions":[7.8125E-2,5.9078205E-1,1.14285715E-1,1.351357E-1,4.9931746E-2,6E-1,1.2892827E-1,7.7938837E-1,1.2194627E-1,-9.7926006E-2,-1.6457763E-1],"split_indices":[3,11,5,0,0,13,0,11,0,0,0],"split_type":[0,0,0,0,0,0,0,0,0,0,0],"sum_hessian":[3.472876E2,1.5990176E2,1.8738583E2,1.5577222E2,4.129549E0,1.7318259E2,1.4203256E1,1.6594374E2,7.2388515E0,5.0290104E1,1.1565363E2],"tree_param":{"num_deleted":"0","num_feature":"23","num_nodes":"11","size_leaf_vector":"1"}},{"base_weights":[-2.9614556E-3,1.2974914E0,-1.0994794E0,1.3117489E-1,5.7259955E-2,-1.2594471E0,1.22818924E-1,-7.4118245E-1,-1.5387629E0,6.60186E-2,-1.3545059E-1,-1.5585624E-1,-8.331977E-2],"categories":[],"categories_nodes":[],"categories_segments":[],"categories_sizes":[],"default_left":[0,0,0,0,0,0,0,0,0,0,0,0,0],"id":5,"left_children":[1,3,5,-1,-1,7,-1,9,11,-1,-1,-1,-1],"loss_changes":[4.8328406E2,8.512573E-1,7.0012695E1,0E0,0E0,2.3836853E1,0E0,5.4487656E1,2.546692E-1,0E0,0E0,0E0,0E0],"parents":[2147483647,0,0,1,1,2,2,5,5,7,7,8,8],"right_children":[2,4,6,-1,-1,8,-1,10,12,-1,-1,-1,-1],"split_conditions":[7.8125E-2,3.7951624E0,1.14285715E-1,1.3117489E-1,5.7259955E-2,4.722222E-1,1.22818924E-1,7.69773E-1,3.9083674E0,6.60186E-2,-1.3545059E-1,-1.5585624E-1,-8.331977E-2],"split_indices":[3,1,5,0,0,3,0,11,1,0,0,0,0],"split_type":[0,0,0,0,0,0,0,0,0,0,0,0,0],"sum_hessian":[3.369156E2,1.5404152E2,1.8287407E2,1.5027625E2,3.7652688E0,1.7154375E2,1.1330321E1,6.1354782E1,1.10188965E2,1.8654694E1,4.270009E1,1.0600531E2,4.1836524E0],"tree_param":{"num_deleted":"0","num_feature":"23","num_nodes":"13","size_leaf_vector":"1"}},{"base_weights":[3.255164E-2,1.0046993E0,-1.3089943E0,-2.1493523E-1,1.2794943E-1,-1.3893898E0,1.1096783E-1,8.993684E-1,-9.5850307E-1,-1.0173674E0,-1.4727698E-1,4.8356988E-2,1.1287788E-1,-1.4810076E-1,1.0241534E-1,1.4209515E-1,-1.4802656E-1],"categories":[],"categories_nodes":[],"categories_segments":[],"categories_sizes":[],"default_left":[0,0,0,0,0,0,0,0,0,0,0,0,0,0,0,0,0],"id":6,"left_children":[1,3,5,7,-1,9,-1,11,13,15,-1,-1,-1,-1,-1,-1,-1],"loss_changes":[4.1168948E2,6.161241E1,2.7334747E1,2.9454748E1,0E0,2.4976196E0,0E0,8.208132E-1,2.3459827E1,3.2375168E1,0E0,0E0,0E0,0E0,0E0,0E0,0E0],"parents":[2147483647,0,0,1,1,2,2,3,3,5,5,7,7,8,8,9,9],"right_children":[2,4,6,8,-1,10,-1,12,14,16,-1,-1,-1,-1,-1,-1,-1],"split_conditions":[3.6E1,7E0,6E-1,2E0,1.2794943E-1,7.7938837E-1,1.1096783E-1,2.321928E0,2.8571429E-2,6.195652E-1,-1.4727698E-1,4.8356988E-2,1.1287788E-1,-1.4810076E-1,1.0241534E-1,1.4209515E-1,-1.4802656E-1],"split_indices":[0,0,13,2,0,11,0,1,4,14,0,0,0,0,0,0,0],"split_type":[0,0,0,0,0,0,0,0,0,0,0,0,0,0,0,0,0],"sum_hessian":[3.1366064E2,1.8201503E2,1.3164561E2,3.3508892E1,1.4850613E2,1.2782242E2,3.8231957E0,1.3327259E1,2.0181635E1,2.5820198E1,1.0200222E2,5.8436766E0,7.4835825E0,1.6172571E1,4.009062E0,3.789468E0,2.203073E1],"tree_param":{"num_deleted":"0","num_feature":"23","num_nodes":"17","size_leaf_vector":"1"}},{"base_weights":[-2.6725603E-3,9.3226147E-1,-1.2751868E0,-1.4048497E-1,1.2273734E-1,-1.3407992E0,1.028453E-1,-1.0085715E0,-1.4064248E-1,5.852405E-2,-1.2870677E-1],"categories":[],"categories_nodes":[],"categories_segments":[],"categories_sizes":[],"default_left":[0,0,0,0,0,0,0,0,0,0,0],"id":7,"left_children":[1,3,5,-1,-1,7,-1,9,-1,-1,-1],"loss_changes":[3.547212E2,1.2027002E2,2.0465668E1,0E0,0E0,1.2679596E0,0E0,1.1343729E1,0E0,0E0,0E0],"parents":[2147483647,0,0,1,1,2,2,5,5,7,7],"right_children":[2,4,6,-1,-1,8,-1,10,-1,-1,-1],"split_conditions":[3.6E1,1E-1,6E-1,-1.4048497E-1,1.2273734E-1,7.7938837E-1,1.028453E-1,2.7777778E-2,-1.4064248E-1,5.852405E-2,-1.2870677E-1],"split_indices":[0,9,13,0,0,11,0,5,0,0,0],"split_type":[0,0,0,0,0,0,0,0,0,0,0],"sum_hessian":[2.9615677E2,1.7087782E2,1.25278946E2,1.8736382E1,1.5214143E2,1.2221595E2,3.0629966E0,2.2859411E1,9.935654E1,3.236387E0,1.9623024E1],"tree_param":{"num_deleted":"0","num_feature":"23","num_nodes":"11","size_leaf_vector":"1"}},{"base_weights":[1.5602773E-2,9.585127E-1,-1.2408892E0,-1.327105E-1,1.1966113E0,-9.790798E-1,-1.3375369E-1,8.240037E-1,1.2160416E-1,6.4017546E-1,-1.3632056E-1,1.0241683E-1,4.0528033E-2,1.2777197E-1,-1.4891028E-2],"categories":[],"categories_nodes":[],"categories_segments":[],"categories_sizes":[],"default_left":[0,0,0,0,0,0,0,0,0,0,0,0,0,0,0],"id":8,"left_children":[1,3,5,-1,7,9,-1,11,-1,13,-1,-1,-1,-1,-1],"loss_changes":[3.295883E2,8.807123E1,1.7083282E0,0E0,4.3777466E-2,2.319545E1,0E0,4.4494867E-1,0E0,3.9943976E0,0E0,0E0,0E0,0E0,0E0],"parents":[2147483647,0,0,1,1,2,2,4,4,5,5,7,7,9,9],"right_children":[2,4,6,-1,8,10,-1,12,-1,14,-1,-1,-1,-1,-1],"split_conditions":[3.6E1,1E-1,8.0525905E-1,-1.327105E-1,2.321928E0,6.27907E-1,-1.3375369E-1,7.741935E-1,1.2160416E-1,2.75E-1,-1.3632056E-1,1.0241683E-1,4.0528033E-2,1.2777197E-1,-1.4891028E-2],"split_indices":[0,9,11,0,1,14,0,14,0,4,0,0,0,0,0],"split_type":[0,0,0,0,0,0,0,0,0,0,0,0,0,0,0],"sum_hessian":[2.7618628E2,1.579174E2,1.1826889E2,1.4467115E1,1.4345029E2,3.488881E1,8.338008E1,9.261149E0,1.3418913E2,6.561729E0,2.8327082E1,5.2875724E0,3.9735765E0,3.2868598E0,3.2748692E0],"tree_param":{"num_deleted":"0","num_feature":"23","num_nodes":"15","size_leaf_vector":"1"}},{"base_weights":[2.8047355E-2,9.299079E-1,-1.161147E0,1.1362519E0,-1.1242535E-1,-8.4529096E-1,-1.3005449E-1,1.180285E-1,1.9038145E-1,7.944923E-1,-1.3126273E-1,-6.287399E-2,9.397953E-2,2.8595806E-3,1.2341285E-1],"categories":[],"categories_nodes":[],"categories_segments":[],"categories_sizes":[],"default_left":[0,0,0,0,0,0,0,0,0,0,0,0,0,0,0],"id":9,"left_children":[1,3,5,7,-1,9,-1,-1,11,13,-1,-1,-1,-1,-1],"loss_changes":[2.773554E2,6.3608887E1,3.8120575E0,5.3616943E0,0E0,2.9406546E1,0E0,0E0,4.985319E0,2.9385433E0,0E0,0E0,0E0,0E0,0E0],"parents":[2147483647,0,0,1,1,2,2,3,3,5,5,8,8,9,9],"right_children":[2,4,6,8,-1,10,-1,-1,12,14,-1,-1,-1,-1,-1],"split_conditions":[3.6E1,4.722222E-1,8.0525905E-1,3.2258064E-1,-1.1242535E-1,6.27907E-1,-1.3005449E-1,1.180285E-1,2.4E1,4.5E-1,-1.3126273E-1,-6.287399E-2,9.397953E-2,2.8595806E-3,1.2341285E-1],"split_indices":[0,3,11,3,0,14,0,0,0,12,0,0,0,0,0],"split_type":[0,0,0,0,0,0,0,0,0,0,0,0,0,0,0],"sum_hessian":[2.5660266E2,1.4605533E2,1.1054733E2,1.3312914E2,1.292619E1,3.601233E1,7.4535E1,1.2697047E2,6.1586776E0,7.831884E0,2.8180447E1,3.0194237E0,3.1392539E0,3.2445502E0,4.587333E0],"tree_param":{"num_deleted":"0","num_feature":"23","num_nodes":"15","size_leaf_vector":"1"}},{"base_weights":[-9.631689E-3,8.86461E-1,-1.136722E0,-1.2409587E-1,1.145169E0,-8.2172704E-1,-1.2618917E-1,7.575346E-1,1.167655E-1,-1.1165147E-1,1.03194825E-1,4.2747576E-2,9.477087E-2],"categories":[],"categories_nodes":[],"categories_segments":[],"categories_sizes":[],"default_left":[0,0,0,0,0,0,0,0,0,0,0,0,0],"id":10,"left_children":[1,3,5,-1,7,9,-1,11,-1,-1,-1,-1,-1],"loss_changes":[2.4344768E2,7.533057E1,3.1722717E0,0E0,1.6358948E-1,1.9307892E1,0E0,1.874175E-1,0E0,0E0,0E0,0E0,0E0],"parents":[2147483647,0,0,1,1,2,2,4,4,5,5,7,7],"right_children":[2,4,6,-1,8,10,-1,12,-1,-1,-1,-1,-1],"split_conditions":[3.6E1,1E-1,8.0525905E-1,-1.2409587E-1,2.321928E0,4.5E-1,-1.2618917E-1,7E0,1.167655E-1,-1.1165147E-1,1.03194825E-1,4.2747576E-2,9.477087E-2],"split_indices":[0,9,11,0,1,12,0,0,0,0,0,0,0],"split_type":[0,0,0,0,0,0,0,0,0,0,0,0,0],"sum_hessian":[2.39045E2,1.3328795E2,1.0575704E2,1.4039655E1,1.192483E2,3.2225403E1,7.353164E1,8.440059E0,1.1080824E2,2.814691E1,4.078492E0,4.272567E0,4.1674914E0],"tree_param":{"num_deleted":"0","num_feature":"23","num_nodes":"13","size_leaf_vector":"1"}},{"base_weights":[-7.191755E-3,1.117331E0,-8.6058694E-1,1.1338883E-1,4.766114E-2,-9.8394406E-1,1.0457649E-1,-3.0347112E-1,-1.1388164E0,-1.2557937E-1,1.0970651E-1,-1.23035744E-1,-9.2520066E-2],"categories":[],"categories_nodes":[],"categories_segments":[],"categories_sizes":[],"default_left":[0,0,0,0,0,0,0,0,0,0,0,0,0],"id":11,"left_children":[1,3,5,-1,-1,7,-1,9,11,-1,-1,-1,-1],"loss_changes":[2.1516896E2,4.8586273E-1,3.1004875E1,0E0,0E0,1.2325783E1,0E0,3.2928074E1,7.698593E-1,0E0,0E0,0E0,0E0],"parents":[2147483647,0,0,1,1,2,2,5,5,7,7,8,8],"right_children":[2,4,6,-1,-1,8,-1,10,12,-1,-1,-1,-1],"split_conditions":[7.8125E-2,5.8868706E-1,1.14285715E-1,1.1338883E-1,4.766114E-2,3.4E1,1.0457649E-1,7E0,3.9783335E0,-1.2557937E-1,1.0970651E-1,-1.23035744E-1,-9.2520066E-2],"split_indices":[3,11,5,0,0,0,0,0,1,0,0,0,0],"split_type":[0,0,0,0,0,0,0,0,0,0,0,0,0],"sum_hessian":[2.2221123E2,9.574212E1,1.2646911E2,9.2579994E1,3.1621244E0,1.19237305E2,7.231805E0,2.2655182E1,9.658212E1,1.3546985E1,9.108196E0,6.4277504E1,3.2304615E1],"tree_param":{"num_deleted":"0","num_feature":"23","num_nodes":"13","size_leaf_vector":"1"}},{"base_weights":[7.313042E-3,8.5866857E-1,-1.0508218E0,-1.1630869E-1,1.10406E0,-7.8189147E-1,-1.1991753E-1,6.461909E-1,1.1295723E-1,1.24011576E-1,-1.2106828E-1,2.9230645E-2,8.886542E-2],"categories":[],"categories_nodes":[],"categories_segments":[],"categories_sizes":[],"default_left":[0,0,0,0,0,0,0,0,0,0,0,0,0],"id":12,"left_children":[1,3,5,-1,7,9,-1,11,-1,-1,-1,-1,-1],"loss_changes":[1.8762683E2,5.8542206E1,2.7673798E0,0E0,4.7830963E-1,3.261801E1,0E0,4.0915585E-1,0E0,0E0,0E0,0E0,0E0],"parents":[2147483647,0,0,1,1,2,2,4,4,5,5,7,7],"right_children":[2,4,6,-1,8,10,-1,12,-1,-1,-1,-1,-1],"split_conditions":[3.6E1,1E-1,3.030303E-1,-1.1630869E-1,2.321928E0,6.4E1,-1.1991753E-1,9.166667E-1,1.1295723E-1,1.24011576E-1,-1.2106828E-1,2.9230645E-2,8.886542E-2],"split_indices":[0,9,3,0,1,0,0,14,0,0,0,0,0],"split_type":[0,0,0,0,0,0,0,0,0,0,0,0,0],"sum_hessian":[2.0627617E2,1.144114E2,9.186477E1,1.1978882E1,1.0243252E2,3.4889194E1,5.697557E1,6.795851E0,9.5636665E1,5.7731633E0,2.9116032E1,3.6598012E0,3.1360497E0],"tree_param":{"num_deleted":"0","num_feature":"23","num_nodes":"13","size_leaf_vector":"1"}},{"base_weights":[4.5047443E-2,1.0771265E0,-7.8633004E-1,1.1014632E-1,3.557996E-2,-9.355484E-1,1.0173929E-1,-1.0251334E0,9.788474E-2,-5.5027094E-2,-1.1255481E-1],"categories":[],"categories_nodes":[],"categories_segments":[],"categories_sizes":[],"default_left":[0,0,0,0,0,0,0,0,0,0,0],"id":13,"left_children":[1,3,5,-1,-1,7,-1,9,-1,-1,-1],"loss_changes":[1.6718903E2,1.1338272E0,3.0005981E1,0E0,0E0,1.8191513E1,0E0,3.9691849E0,0E0,0E0,0E0],"parents":[2147483647,0,0,1,1,2,2,5,5,7,7],"right_children":[2,4,6,-1,-1,8,-1,10,-1,-1,-1],"split_conditions":[7.8125E-2,4.6875E-2,1.14285715E-1,1.1014632E-1,3.557996E-2,6E-1,1.0173929E-1,3.5E1,9.788474E-2,-5.5027094E-2,-1.1255481E-1],"split_indices":[3,3,5,0,0,13,0,0,0,0,0],"split_type":[0,0,0,0,0,0,0,0,0,0,0],"sum_hessian":[1.9286118E2,8.591276E1,1.0694842E2,8.2598976E1,3.3137834E0,9.922136E1,7.7270584E0,9.522957E1,3.9917927E0,1.7753435E1,7.747613E1],"tree_param":{"num_deleted":"0","num_feature":"23","num_nodes":"11","size_leaf_vector":"1"}},{"base_weights":[1.3596491E-2,1.0709112E-1,-7.4616134E-1,-8.679523E-1,9.670203E-2,-9.5371485E-1,9.550511E-2,-5.899616E-2,-1.1555257E-1],"categories":[],"categories_nodes":[],"categories_segments":[],"categories_sizes":[],"default_left":[0,0,0,0,0,0,0,0,0],"id":14,"left_children":[1,-1,3,5,-1,7,-1,-1,-1],"loss_changes":[1.435704E2,0E0,2.2540337E1,1.617495E1,0E0,6.1999817E0,0E0,0E0,0E0],"parents":[2147483647,0,0,2,2,3,3,5,5],"right_children":[2,-1,4,6,-1,8,-1,-1,-1],"split_conditions":[7.8125E-2,1.0709112E-1,1.14285715E-1,6E-1,9.670203E-2,7.7938837E-1,9.550511E-2,-5.899616E-2,-1.1555257E-1],"split_indices":[3,0,5,13,0,11,0,0,0],"split_type":[0,0,0,0,0,0,0,0,0],"sum_hessian":[1.7673033E2,7.372359E1,1.03006744E2,9.66306E1,6.37615E0,9.2744316E1,3.8862796E0,3.449402E1,5.8250298E1],"tree_param":{"num_deleted":"0","num_feature":"23","num_nodes":"9","size_leaf_vector":"1"}},{"base_weights":[8.540912E-3,1.0462118E0,-7.31453E-1,1.0705773E-1,5.1562052E-2,-8.5152954E-1,9.602308E-2,-9.3847334E-1,9.281858E-2,-5.857407E-2,-1.1167268E-1],"categories":[],"categories_nodes":[],"categories_segments":[],"categories_sizes":[],"default_left":[0,0,0,0,0,0,0,0,0,0,0],"id":15,"left_children":[1,3,5,-1,-1,7,-1,9,-1,-1,-1],"loss_changes":[1.2952267E2,3.5570526E-1,2.0819748E1,0E0,0E0,1.5179817E1,0E0,4.920624E0,0E0,0E0,0E0],"parents":[2147483647,0,0,1,1,2,2,5,5,7,7],"right_children":[2,4,6,-1,-1,8,-1,10,-1,-1,-1],"split_conditions":[7.5E-2,3.7390978E0,1.14285715E-1,1.0705773E-1,5.1562052E-2,6E-1,9.602308E-2,4.25E-1,9.281858E-2,-5.857407E-2,-1.1167268E-1],"split_indices":[3,1,5,0,0,13,0,3,0,0,0],"split_type":[0,0,0,0,0,0,0,0,0,0,0],"sum_hessian":[1.6668124E2,6.921265E1,9.74686E1,6.520083E1,4.0118184E0,9.147247E1,5.9961257E0,8.766261E1,3.8098655E0,3.0867388E1,5.679522E1],"tree_param":{"num_deleted":"0","num_feature":"23","num_nodes":"11","size_leaf_vector":"1"}},{"base_weights":[2.9536417E-2,7.834164E-1,-9.2400885E-1,1.0095595E0,-9.795841E-2,-5.9265155E-1,-1.11441016E-1,1.0673691E-1,1.1594623E-2,-1.7439908E-1,-1.08827665E-1,1.1810122E-1,-1.0460422E-1],"categories":[],"categories_nodes":[],"categories_segments":[],"categories_sizes":[],"default_left":[0,0,0,0,0,0,0,0,0,0,0,0,0],"id":16,"left_children":[1,3,5,7,-1,9,-1,-1,-1,11,-1,-1,-1],"loss_changes":[1.1180131E2,3.560941E1,3.6728554E0,3.8775635E0,0E0,5.4486837E0,0E0,0E0,0E0,2.007019E1,0E0,0E0,0E0],"parents":[2147483647,0,0,1,1,2,2,3,3,5,5,9,9],"right_children":[2,4,6,8,-1,10,-1,-1,-1,12,-1,-1,-1],"split_conditions":[3.6E1,4.722222E-1,8.118638E-1,3.3333334E-1,-9.795841E-2,6.4E1,-1.11441016E-1,1.0673691E-1,1.1594623E-2,3.030303E-1,-1.08827665E-1,1.1810122E-1,-1.0460422E-1],"split_indices":[0,3,11,3,0,0,0,0,0,3,0,0,0],"split_type":[0,0,0,0,0,0,0,0,0,0,0,0,0],"sum_hessian":[1.5351913E2,8.583543E1,6.768371E1,7.645568E1,9.379741E0,2.620008E1,4.1483627E1,7.162752E1,4.8281674E0,1.4942309E1,1.12577715E1,5.709332E0,9.232978E0],"tree_param":{"num_deleted":"0","num_feature":"23","num_nodes":"13","size_leaf_vector":"1"}},{"base_weights":[2.0491133E-2,1.0100275E0,-6.640725E-1,1.0451881E-1,3.1947933E-2,-1.6648205E-1,-1.0704725E0,7.6764256E-1,-9.7349507E-1,-1.1059487E-1,-4.3528344E-2,-2.5053738E-2,1.0186993E-1,-3.0483097E-2,-1.08217634E-1],"categories":[],"categories_nodes":[],"categories_segments":[],"categories_sizes":[],"default_left":[0,0,0,0,0,0,0,0,0,0,0,0,0,0,0],"id":17,"left_children":[1,3,5,-1,-1,7,9,11,13,-1,-1,-1,-1,-1,-1],"loss_changes":[9.8093056E1,1.1036072E0,1.7134312E1,0E0,0E0,3.065413E1,5.7634735E-1,5.0984793E0,1.2489071E0,0E0,0E0,0E0,0E0,0E0,0E0],"parents":[2147483647,0,0,1,1,2,2,5,5,6,6,7,7,8,8],"right_children":[2,4,6,-1,-1,8,10,12,14,-1,-1,-1,-1,-1,-1],"split_conditions":[7.8125E-2,5.8588785E-1,4.722222E-1,1.0451881E-1,3.1947933E-2,2.96875E-1,3.8968225E0,3E-1,3.4375E-1,-1.1059487E-1,-4.3528344E-2,-2.5053738E-2,1.0186993E-1,-3.0483097E-2,-1.08217634E-1],"split_indices":[3,11,3,0,0,4,1,12,4,0,0,0,0,0,0],"split_type":[0,0,0,0,0,0,0,0,0,0,0,0,0,0,0],"sum_hessian":[1.4281789E2,5.820588E1,8.461201E1,5.4897125E1,3.3087542E0,3.8672092E1,4.5939915E1,1.7947031E1,2.0725061E1,4.2807903E1,3.1320105E0,3.5503566E0,1.4396675E1,3.4295409E0,1.729552E1],"tree_param":{"num_deleted":"0","num_feature":"23","num_nodes":"15","size_leaf_vector":"1"}},{"base_weights":[-4.690674E-3,1.0041416E0,-6.8578154E-1,1.03312634E-1,4.1301988E-2,-8.022578E-1,9.145649E-2,-4.242129E-1,-1.0533105E0,4.968701E-2,-1.0252776E-1,-1.09079294E-1,-4.49362E-2],"categories":[],"categories_nodes":[],"categories_segments":[],"categories_sizes":[],"default_left":[0,0,0,0,0,0,0,0,0,0,0,0,0],"id":18,"left_children":[1,3,5,-1,-1,7,-1,9,11,-1,-1,-1,-1],"loss_changes":[9.249349E1,5.028801E-1,1.5712219E1,0E0,0E0,6.712818E0,0E0,1.8103111E1,5.207825E-1,0E0,0E0,0E0,0E0],"parents":[2147483647,0,0,1,1,2,2,5,5,7,7,8,8],"right_children":[2,4,6,-1,-1,8,-1,10,12,-1,-1,-1,-1],"split_conditions":[7.8125E-2,3.7631483E0,1.14285715E-1,1.03312634E-1,4.1301988E-2,4.722222E-1,9.145649E-2,2.5E-1,3.8908765E0,4.968701E-2,-1.0252776E-1,-1.09079294E-1,-4.49362E-2],"split_indices":[3,1,5,0,0,3,0,9,1,0,0,0,0],"split_type":[0,0,0,0,0,0,0,0,0,0,0,0,0],"sum_hessian":[1.3261086E2,5.325508E1,7.9355774E1,5.0053062E1,3.2020187E0,7.443681E1,4.9189544E0,3.0778744E1,4.3658073E1,1.2222343E1,1.85564E1,4.0347897E1,3.3101768E0],"tree_param":{"num_deleted":"0","num_feature":"23","num_nodes":"13","size_leaf_vector":"1"}},{"base_weights":[-3.0017586E-3,7.2401005E-1,-9.0130806E-1,-1.0416245E-1,1.015496E0,-5.934179E-1,-1.0753932E-1,3.445072E-2,1.06004775E-1,-9.2662007E-1,9.8857425E-2,-2.9260485E-2,-1.0318851E-1],"categories":[],"categories_nodes":[],"categories_segments":[],"categories_sizes":[],"default_left":[0,0,0,0,0,0,0,0,0,0,0,0,0],"id":19,"left_children":[1,3,5,-1,7,9,-1,-1,-1,11,-1,-1,-1],"loss_changes":[8.2173355E1,3.68496E1,2.378418E0,0E0,1.4343185E0,1.2807495E1,0E0,0E0,0E0,9.7616386E-1,0E0,0E0,0E0],"parents":[2147483647,0,0,1,1,2,2,4,4,5,5,9,9],"right_children":[2,4,6,-1,8,10,-1,-1,-1,12,-1,-1,-1],"split_conditions":[3.6E1,1E-1,8.118638E-1,-1.0416245E-1,2.321928E0,4.5E-1,-1.0753932E-1,3.445072E-2,1.06004775E-1,6.195652E-1,9.8857425E-2,-2.9260485E-2,-1.0318851E-1],"split_indices":[0,9,11,0,1,12,0,0,0,14,0,0,0],"split_type":[0,0,0,0,0,0,0,0,0,0,0,0,0],"sum_hessian":[1.23825264E2,6.854493E1,5.528034E1,9.347897E0,5.9197033E1,2.1559166E1,3.3721172E1,4.2295065E0,5.4967525E1,1.8150536E1,3.4086306E0,3.1226122E0,1.5027924E1],"tree_param":{"num_deleted":"0","num_feature":"23","num_nodes":"13","size_leaf_vector":"1"}},{"base_weights":[1.5023679E-2,7.558534E-1,-8.8233006E-1,1.0276947E-1,-6.699953E-1,-5.801965E-1,-1.05993964E-1,1.601564E-2,-1.08556844E-1,1.0611991E-1,-1.0613866E-1],"categories":[],"categories_nodes":[],"categories_segments":[],"categories_sizes":[],"default_left":[0,0,0,0,0,0,0,0,0,0,0],"id":20,"left_children":[1,3,5,-1,7,9,-1,-1,-1,-1,-1],"loss_changes":[7.743972E1,2.5417023E1,2.2122917E0,0E0,3.90698E0,1.8277328E1,0E0,0E0,0E0,0E0,0E0],"parents":[2147483647,0,0,1,1,2,2,4,4,5,5],"right_children":[2,4,6,-1,8,10,-1,-1,-1,-1,-1],"split_conditions":[3.6E1,3.3333334E-1,3.030303E-1,1.0276947E-1,8.581081E-1,6.4E1,-1.05993964E-1,1.601564E-2,-1.08556844E-1,1.0611991E-1,-1.0613866E-1],"split_indices":[0,3,3,0,14,0,0,0,0,0,0],"split_type":[0,0,0,0,0,0,0,0,0,0,0],"sum_hessian":[1.1448495E2,6.2798214E1,5.1686733E1,5.2977226E1,9.820987E0,2.0714966E1,3.0971767E1,3.4813106E0,6.3396764E0,4.422826E0,1.629214E1],"tree_param":{"num_deleted":"0","num_feature":"23","num_nodes":"11","size_leaf_vector":"1"}},{"base_weights":[2.5841383E-2,7.326813E-1,-8.4986126E-1,-9.8608054E-2,9.951996E-1,-5.418176E-1,-1.045826E-1,3.670762E-2,1.0460021E-1,1.0435014E-1,-1.04709975E-1],"categories":[],"categories_nodes":[],"categories_segments":[],"categories_sizes":[],"default_left":[0,0,0,0,0,0,0,0,0,0,0],"id":21,"left_children":[1,3,5,-1,7,9,-1,-1,-1,-1,-1],"loss_changes":[6.624305E1,2.7692654E1,2.3196602E0,0E0,1.2706947E0,1.764647E1,0E0,0E0,0E0,0E0,0E0],"parents":[2147483647,0,0,1,1,2,2,4,4,5,5],"right_children":[2,4,6,-1,8,10,-1,-1,-1,-1,-1],"split_conditions":[3.6E1,1E-1,3.030303E-1,-9.8608054E-2,2.321928E0,6.4E1,-1.045826E-1,3.670762E-2,1.0460021E-1,1.0435014E-1,-1.04709975E-1],"split_indices":[0,9,3,0,1,0,0,0,0,0,0],"split_type":[0,0,0,0,0,0,0,0,0,0,0],"sum_hessian":[1.0501345E2,5.819975E1,4.6813705E1,7.346229E0,5.085352E1,1.9665577E1,2.7148127E1,4.420755E0,4.6432762E1,4.495571E0,1.5170007E1],"tree_param":{"num_deleted":"0","num_feature":"23","num_nodes":"11","size_leaf_vector":"1"}},{"base_weights":[7.5192316E-3,7.0333177E-1,-8.585437E-1,-9.755483E-2,9.80494E-1,-3.9032668E-1,-9.6229786E-1,2.176529E-2,1.03751555E-1,5.530989E-2,-9.1830894E-2,-1.007669E-1,-5.385753E-2],"categories":[],"categories_nodes":[],"categories_segments":[],"categories_sizes":[],"default_left":[0,0,0,0,0,0,0,0,0,0,0,0,0],"id":22,"left_children":[1,3,5,-1,7,9,11,-1,-1,-1,-1,-1,-1],"loss_changes":[5.8103043E1,2.5831673E1,1.7112579E0,0E0,1.7917175E0,5.227462E0,1.2022209E-1,0E0,0E0,0E0,0E0,0E0,0E0],"parents":[2147483647,0,0,1,1,2,2,4,4,5,5,6,6],"right_children":[2,4,6,-1,8,10,12,-1,-1,-1,-1,-1,-1],"split_conditions":[3.6E1,1E-1,7.69773E-1,-9.755483E-2,3.86988E-1,4.25E-1,4.4444446E-2,2.176529E-2,1.03751555E-1,5.530989E-2,-9.1830894E-2,-1.007669E-1,-5.385753E-2],"split_indices":[0,9,11,0,11,3,5,0,0,0,0,0,0],"split_type":[0,0,0,0,0,0,0,0,0,0,0,0,0],"sum_hessian":[9.441576E1,5.245791E1,4.1957848E1,7.076006E0,4.53819E1,8.474871E0,3.348298E1,3.4913368E0,4.1890564E1,3.0239506E0,5.45092E0,2.8999638E1,4.4833407E0],"tree_param":{"num_deleted":"0","num_feature":"23","num_nodes":"13","size_leaf_vector":"1"}},{"base_weights":[1.1942146E-2,1.0165991E-1,-6.01532E-1,-1.0360812E-1,-9.457537E-1,-1.0677546E-1,9.689262E-2,-5.3333944E-1,-1.03163056E-1,-8.8552654E-2,-7.566169E-4],"categories":[],"categories_nodes":[],"categories_segments":[],"categories_sizes":[],"default_left":[0,0,0,0,0,0,0,0,0,0,0],"id":23,"left_children":[1,-1,3,5,7,-1,-1,9,-1,-1,-1],"loss_changes":[5.631885E1,0E0,9.628113E0,2.6181044E1,6.337242E-1,0E0,0E0,1.443464E0,0E0,0E0,0E0],"parents":[2147483647,0,0,2,2,3,3,4,4,7,7],"right_children":[2,-1,4,6,8,-1,-1,10,-1,-1,-1],"split_conditions":[4.6875E-2,1.0165991E-1,7.69773E-1,2E-1,8.0525905E-1,-1.0677546E-1,9.689262E-2,1.6666667E-1,-1.03163056E-1,-8.8552654E-2,-7.566169E-4],"split_indices":[3,0,11,12,11,0,0,3,0,0,0],"split_type":[0,0,0,0,0,0,0,0,0,0,0],"sum_hessian":[8.9385414E1,3.3639126E1,5.574629E1,2.3317717E1,3.242857E1,1.2281665E1,1.1036052E1,6.8315043E0,2.5597065E1,3.681338E0,3.1501663E0],"tree_param":{"num_deleted":"0","num_feature":"23","num_nodes":"11","size_leaf_vector":"1"}},{"base_weights":[7.6444545E-3,5.058673E-1,-9.1271824E-1,-9.8778605E-2,8.747939E-1,-4.9476236E-1,-1.01792715E-1,3.887319E-2,9.6944374E-1,5.691377E-3,-8.603282E-2,1.027615E-1,2.5769789E-2],"categories":[],"categories_nodes":[],"categories_segments":[],"categories_sizes":[],"default_left":[0,0,0,0,0,0,0,0,0,0,0,0,0],"id":24,"left_children":[1,3,5,-1,7,9,-1,-1,11,-1,-1,-1,-1],"loss_changes":[3.857687E1,3.0935879E1,7.957592E-1,0E0,1.660881E0,1.639813E0,0E0,0E0,1.2424393E0,0E0,0E0,0E0,0E0],"parents":[2147483647,0,0,1,1,2,2,4,4,5,5,8,8],"right_children":[2,4,6,-1,8,10,-1,-1,12,-1,-1,-1,-1],"split_conditions":[7.7938837E-1,1E-1,8.118638E-1,-9.8778605E-2,1E-1,6.195652E-1,-1.01792715E-1,3.887319E-2,4.514718E0,5.691377E-3,-8.603282E-2,1.027615E-1,2.5769789E-2],"split_indices":[11,9,11,0,12,14,0,0,1,0,0,0,0],"split_type":[0,0,0,0,0,0,0,0,0,0,0,0,0],"sum_hessian":[8.212182E1,5.3571922E1,2.8549896E1,1.0278886E1,4.3293037E1,6.888221E0,2.1661674E1,7.8887005E0,3.5404335E1,3.0817933E0,3.8064275E0,3.231909E1,3.0852416E0],"tree_param":{"num_deleted":"0","num_feature":"23","num_nodes":"13","size_leaf_vector":"1"}},{"base_weights":[9.6786525E-3,7.009235E-1,-7.842298E-1,-9.042379E-2,9.4501513E-1,-4.4085714E-1,-1.0078939E-1,2.5004542E-2,1.0140727E-1,9.891687E-2,-9.991258E-2],"categories":[],"categories_nodes":[],"categories_segments":[],"categories_sizes":[],"default_left":[0,0,0,0,0,0,0,0,0,0,0],"id":25,"left_children":[1,3,5,-1,7,9,-1,-1,-1,-1,-1],"loss_changes":[4.3487057E1,1.7448578E1,2.3886738E0,0E0,1.5342369E0,1.4023372E1,0E0,0E0,0E0,0E0,0E0],"parents":[2147483647,0,0,1,1,2,2,4,4,5,5],"right_children":[2,4,6,-1,8,10,-1,-1,-1,-1,-1],"split_conditions":[3.6E1,1E-1,3.030303E-1,-9.042379E-2,3.86988E-1,6.4E1,-1.0078939E-1,2.5004542E-2,1.0140727E-1,9.891687E-2,-9.991258E-2],"split_indices":[0,9,3,0,11,0,0,0,0,0,0],"split_type":[0,0,0,0,0,0,0,0,0,0,0],"sum_hessian":[7.724077E1,4.135269E1,3.588808E1,5.101357E0,3.6251335E1,1.5327744E1,2.0560335E1,3.694281E0,3.2557053E1,4.0869694E0,1.1240774E1],"tree_param":{"num_deleted":"0","num_feature":"23","num_nodes":"11","size_leaf_vector":"1"}},{"base_weights":[3.4696933E-2,7.2101796E-1,-7.7704287E-1,-2.7818972E-1,1.0073369E-1,-4.556595E-1,-1.0087844E-1,4.1241895E-2,-7.407571E-2,-9.113675E-2,9.393049E-2],"categories":[],"categories_nodes":[],"categories_segments":[],"categories_sizes":[],"default_left":[0,0,0,0,0,0,0,0,0,0,0],"id":26,"left_children":[1,3,5,7,-1,9,-1,-1,-1,-1,-1],"loss_changes":[3.8970974E1,1.1116753E1,1.9287052E0,3.2508328E0,0E0,1.055634E1,0E0,0E0,0E0,0E0,0E0],"parents":[2147483647,0,0,1,1,2,2,3,3,5,5],"right_children":[2,4,6,8,-1,10,-1,-1,-1,-1,-1],"split_conditions":[3.6E1,7E0,6.4E1,2E0,1.0073369E-1,3.9783335E0,-1.0087844E-1,4.1241895E-2,-7.407571E-2,-9.113675E-2,9.393049E-2],"split_indices":[0,0,0,2,0,1,0,0,0,0,0],"split_type":[0,0,0,0,0,0,0,0,0,0,0],"sum_hessian":[6.794588E1,3.687774E1,3.1068136E1,8.219918E0,2.8657818E1,1.4259308E1,1.6808828E1,3.3406992E0,4.8792195E0,1.1009417E1,3.249891E0],"tree_param":{"num_deleted":"0","num_feature":"23","num_nodes":"11","size_leaf_vector":"1"}},{"base_weights":[-2.5240243E-3,6.540796E-1,-7.6427305E-1,-8.901622E-2,9.202905E-1,-4.1180634E-1,-9.846788E-2,1.6447397E-2,1.0009424E-1,-9.5161565E-2,9.203373E-2],"categories":[],"categories_nodes":[],"categories_segments":[],"categories_sizes":[],"default_left":[0,0,0,0,0,0,0,0,0,0,0],"id":27,"left_children":[1,3,5,-1,7,9,-1,-1,-1,-1,-1],"loss_changes":[3.3873783E1,1.5772678E1,2.0299969E0,0E0,1.7566414E0,1.07855E1,0E0,0E0,0E0,0E0,0E0],"parents":[2147483647,0,0,1,1,2,2,4,4,5,5],"right_children":[2,4,6,-1,8,10,-1,-1,-1,-1,-1],"split_conditions":[3.6E1,1E-1,6.195652E-1,-8.901622E-2,2.321928E0,1E0,-9.846788E-2,1.6447397E-2,1.0009424E-1,-9.5161565E-2,9.203373E-2],"split_indices":[0,9,14,0,1,17,0,0,0,0,0],"split_type":[0,0,0,0,0,0,0,0,0,0,0],"sum_hessian":[6.572546E1,3.537482E1,3.0350637E1,4.8569136E0,3.0517908E1,1.2780622E1,1.7570015E1,3.23557E0,2.728234E1,9.298392E0,3.4822297E0],"tree_param":{"num_deleted":"0","num_feature":"23","num_nodes":"11","size_leaf_vector":"1"}},{"base_weights":[-1.4496564E-2,9.411509E-2,-5.978281E-1,-1.9504848E-1,-9.631135E-2,5.6040865E-1,-9.610523E-2,9.419602E-2,-2.6145158E-2],"categories":[],"categories_nodes":[],"categories_segments":[],"categories_sizes":[],"default_left":[0,0,0,0,0,0,0,0,0],"id":28,"left_children":[1,-1,3,5,-1,7,-1,-1,-1],"loss_changes":[3.334099E1,0E0,5.2741556E0,1.1481319E1,0E0,3.429783E0,0E0,0E0,0E0],"parents":[2147483647,0,0,2,2,3,3,5,5],"right_children":[2,-1,4,6,-1,8,-1,-1,-1],"split_conditions":[4.6875E-2,9.411509E-2,4.5E-1,6.4E1,-9.631135E-2,3.030303E-1,-9.610523E-2,9.419602E-2,-2.6145158E-2],"split_indices":[3,0,3,0,0,3,0,0,0],"split_type":[0,0,0,0,0,0,0,0,0],"sum_hessian":[5.7799526E1,2.1675713E1,3.6123814E1,1.7909727E1,1.8214085E1,9.152069E0,8.757659E0,6.150531E0,3.001538E0],"tree_param":{"num_deleted":"0","num_feature":"23","num_nodes":"9","size_leaf_vector":"1"}},{"base_weights":[-1.4249606E-3,9.298014E-2,-5.471942E-1,-9.9910915E-2,-1.9226533E-1,9.0214014E-2,-6.358779E-1,-9.865164E-3,-9.535199E-2],"categories":[],"categories_nodes":[],"categories_segments":[],"categories_sizes":[],"default_left":[0,0,0,0,0,0,0,0,0],"id":29,"left_children":[1,-1,3,-1,5,-1,7,-1,-1],"loss_changes":[2.8575872E1,0E0,5.4936743E0,0E0,1.081402E1,0E0,2.5672388E0,0E0,0E0],"parents":[2147483647,0,0,2,2,4,4,6,6],"right_children":[2,-1,4,-1,6,-1,8,-1,-1],"split_conditions":[4.6875E-2,9.298014E-2,3E0,-9.9910915E-2,3.6E1,9.0214014E-2,6.4E1,-9.865164E-3,-9.535199E-2],"split_indices":[3,0,2,0,0,0,0,0,0],"split_type":[0,0,0,0,0,0,0,0,0],"sum_hessian":[5.4224667E1,1.9776716E1,3.4447952E1,1.4355184E1,2.0092768E1,5.4972544E0,1.4595513E1,5.9101987E0,8.685315E0],"tree_param":{"num_deleted":"0","num_feature":"23","num_nodes":"9","size_leaf_vector":"1"}},{"base_weights":[2.998903E-2,6.677126E-1,-7.3090774E-1,-8.248921E-2,9.1597635E-1,-4.033859E-1,-9.6775174E-2,3.2632623E-2,9.827275E-2,-8.5572E-2,6.720364E-2],"categories":[],"categories_nodes":[],"categories_segments":[],"categories_sizes":[],"default_left":[0,0,0,0,0,0,0,0,0,0,0],"id":30,"left_children":[1,3,5,-1,7,9,-1,-1,-1,-1,-1],"loss_changes":[2.5371815E1,1.1287368E1,1.460474E0,0E0,6.570835E-1,6.2801123E0,0E0,0E0,0E0,0E0,0E0],"parents":[2147483647,0,0,1,1,2,2,4,4,5,5],"right_children":[2,4,6,-1,8,10,-1,-1,-1,-1,-1],"split_conditions":[3.6E1,1E-1,6.4E1,-8.248921E-2,2.4056392E0,3.8837197E0,-9.6775174E-2,3.2632623E-2,9.827275E-2,-8.5572E-2,6.720364E-2],"split_indices":[0,9,0,0,1,1,0,0,0,0,0],"split_type":[0,0,0,0,0,0,0,0,0,0,0],"sum_hessian":[5.028119E1,2.7421295E1,2.2859896E1,3.5792968E0,2.3841997E1,1.0727898E1,1.2131998E1,3.0233905E0,2.0818607E1,7.6954174E0,3.0324805E0],"tree_param":{"num_deleted":"0","num_feature":"23","num_nodes":"11","size_leaf_vector":"1"}},{"base_weights":[-1.7903702E-2,9.109994E-2,-5.616514E-1,-9.853755E-2,-2.0847107E-1,2.2286804E-1,-6.6822106E-1,-7.980032E-2,8.249207E-2,-8.741362E-2,-2.095819E-2],"categories":[],"categories_nodes":[],"categories_segments":[],"categories_sizes":[],"default_left":[0,0,0,0,0,0,0,0,0,0,0],"id":31,"left_children":[1,-1,3,-1,5,7,9,-1,-1,-1,-1],"loss_changes":[2.4614204E1,0E0,4.3916388E0,0E0,3.7228835E0,6.8341703E0,6.643014E-1,0E0,0E0,0E0,0E0],"parents":[2147483647,0,0,2,2,4,4,5,5,6,6],"right_children":[2,-1,4,-1,6,8,10,-1,-1,-1,-1],"split_conditions":[4.6875E-2,9.109994E-2,3E0,-9.853755E-2,5.0035243E0,2E-1,1.6666667E-1,-7.980032E-2,8.249207E-2,-8.741362E-2,-2.095819E-2],"split_indices":[3,0,2,0,1,12,3,0,0,0,0],"split_type":[0,0,0,0,0,0,0,0,0,0,0],"sum_hessian":[4.67194E1,1.7000849E1,2.971855E1,1.2696302E1,1.7022247E1,9.04832E0,7.973926E0,3.2358968E0,5.812423E0,4.877943E0,3.095983E0],"tree_param":{"num_deleted":"0","num_feature":"23","num_nodes":"11","size_leaf_vector":"1"}},{"base_weights":[-8.231818E-3,6.099931E-1,-7.038948E-1,-4.275206E-2,9.706071E-2,-3.6469766E-1,-9.5160596E-2,-8.2165174E-2,5.655111E-2],"categories":[],"categories_nodes":[],"categories_segments":[],"categories_sizes":[],"default_left":[0,0,0,0,0,0,0,0,0],"id":32,"left_children":[1,3,5,-1,-1,7,-1,-1,-1],"loss_changes":[1.937385E1,9.341376E0,1.4334612E0,0E0,0E0,4.955516E0,0E0,0E0,0E0],"parents":[2147483647,0,0,1,1,2,2,5,5],"right_children":[2,4,6,-1,-1,8,-1,-1,-1],"split_conditions":[3.6E1,7E0,6.4E1,-4.275206E-2,9.706071E-2,3.868443E0,-9.5160596E-2,-8.2165174E-2,5.655111E-2],"split_indices":[0,0,0,0,0,1,0,0,0],"split_type":[0,0,0,0,0,0,0,0,0],"sum_hessian":[4.304913E1,2.2858385E1,2.0190744E1,5.847925E0,1.701046E1,9.565177E0,1.06255665E1,6.49251E0,3.0726671E0],"tree_param":{"num_deleted":"0","num_feature":"23","num_nodes":"9","size_leaf_vector":"1"}},{"base_weights":[1.7155865E-3,8.8594936E-2,-4.8344037E-1,-9.236389E-2,-8.892769E-2,6.0812676E-1,-9.047317E-2,8.958829E-2,8.376986E-3],"categories":[],"categories_nodes":[],"categories_segments":[],"categories_sizes":[],"default_left":[0,0,0,0,0,0,0,0,0],"id":33,"left_children":[1,-1,3,5,-1,7,-1,-1,-1],"loss_changes":[1.8198788E1,0E0,4.2658E0,9.124199E0,0E0,1.2359595E0,0E0,0E0,0E0],"parents":[2147483647,0,0,2,2,3,3,5,5],"right_children":[2,-1,4,6,-1,8,-1,-1,-1],"split_conditions":[4.6875E-2,8.8594936E-2,4.722222E-1,6.4E1,-8.892769E-2,2.65625E-1,-9.047317E-2,8.958829E-2,8.376986E-3],"split_indices":[3,0,3,0,0,3,0,0,0],"split_type":[0,0,0,0,0,0,0,0,0],"sum_hessian":[4.0423885E1,1.4028948E1,2.639494E1,1.406707E1,1.2327868E1,7.6886744E0,6.378396E0,4.5068645E0,3.1818097E0],"tree_param":{"num_deleted":"0","num_feature":"23","num_nodes":"9","size_leaf_vector":"1"}},{"base_weights":[-2.5822235E-2,8.771754E-2,-5.431975E-1,-9.3542606E-2,-2.1232702E-1,8.0584854E-2,-5.783163E-1,-9.523446E-3,-8.891817E-2],"categories":[],"categories_nodes":[],"categories_segments":[],"categories_sizes":[],"default_left":[0,0,0,0,0,0,0,0,0],"id":34,"left_children":[1,-1,3,-1,5,-1,7,-1,-1],"loss_changes":[1.8196472E1,0E0,3.0108705E0,0E0,5.946953E0,0E0,1.6275129E0,0E0,0E0],"parents":[2147483647,0,0,2,2,4,4,6,6],"right_children":[2,-1,4,-1,6,-1,8,-1,-1],"split_conditions":[4.6875E-2,8.771754E-2,3E0,-9.3542606E-2,3.6E1,8.0584854E-2,6.4E1,-9.523446E-3,-8.891817E-2],"split_indices":[3,0,2,0,0,0,0,0,0],"split_type":[0,0,0,0,0,0,0,0,0],"sum_hessian":[3.692899E1,1.3198186E1,2.3730804E1,1.002251E1,1.3708294E1,3.3068523E0,1.0401442E1,4.584119E0,5.8173227E0],"tree_param":{"num_deleted":"0","num_feature":"23","num_nodes":"9","size_leaf_vector":"1"}},{"base_weights":[1.34734055E-2,9.383767E-2,-4.7452354E-1,5.521485E-3,-8.211411E-1,8.996352E-2,-8.704756E-2,-9.787827E-2,-3.246376E-2],"categories":[],"categories_nodes":[],"categories_segments":[],"categories_sizes":[],"default_left":[0,0,0,0,0,0,0,0,0],"id":35,"left_children":[1,-1,3,5,7,-1,-1,-1,-1],"loss_changes":[1.6937656E1,0E0,4.0950804E0,9.634707E0,8.001394E-1,0E0,0E0,0E0,0E0],"parents":[2147483647,0,0,2,2,3,3,4,4],"right_children":[2,-1,4,6,8,-1,-1,-1,-1],"split_conditions":[4.6875E-2,9.383767E-2,3.3333334E-1,6.4E1,3E0,8.996352E-2,-8.704756E-2,-9.787827E-2,-3.246376E-2],"split_indices":[3,0,3,0,2,0,0,0,0],"split_type":[0,0,0,0,0,0,0,0,0],"sum_hessian":[3.5540108E1,1.1956317E1,2.358379E1,1.0301243E1,1.3282547E1,5.084552E0,5.2166905E0,9.344337E0,3.9382093E0],"tree_param":{"num_deleted":"0","num_feature":"23","num_nodes":"9","size_leaf_vector":"1"}},{"base_weights":[2.8774578E-2,8.495241E-2,-4.229618E-1,-6.959347E-2,-9.1137834E-2,3.4447467E-1,-8.351672E-2,6.501909E-2,-1.8338712E-2],"categories":[],"categories_nodes":[],"categories_segments":[],"categories_sizes":[],"default_left":[0,0,0,0,0,0,0,0,0],"id":36,"left_children":[1,-1,3,5,-1,7,-1,-1,-1],"loss_changes":[1.2638108E1,0E0,3.7384796E0,4.6825457E0,0E0,1.6854693E0,0E0,0E0,0E0],"parents":[2147483647,0,0,2,2,3,3,5,5],"right_children":[2,-1,4,6,-1,8,-1,-1,-1],"split_conditions":[4.6875E-2,8.495241E-2,5.15625E-1,3.4375E-1,-9.1137834E-2,3.3333334E-1,-8.351672E-2,6.501909E-2,-1.8338712E-2],"split_indices":[3,0,3,4,0,3,0,0,0],"split_type":[0,0,0,0,0,0,0,0,0],"sum_hessian":[3.2117687E1,1.1089272E1,2.1028418E1,1.28639E1,8.164516E0,8.705492E0,4.158408E0,5.3659854E0,3.3395064E0],"tree_param":{"num_deleted":"0","num_feature":"23","num_nodes":"9","size_leaf_vector":"1"}},{"base_weights":[8.217607E-3,9.250891E-2,-4.9130955E-1,-1.7194672E-1,-9.052132E-2,2.9757407E-1,-8.488709E-2,8.38077E-2,-3.4131415E-2],"categories":[],"categories_nodes":[],"categories_segments":[],"categories_sizes":[],"default_left":[0,0,0,0,0,0,0,0,0],"id":37,"left_children":[1,-1,3,5,-1,7,-1,-1,-1],"loss_changes":[1.4670549E1,0E0,2.5866232E0,4.3668127E0,0E0,3.181113E0,0E0,0E0,0E0],"parents":[2147483647,0,0,2,2,3,3,5,5],"right_children":[2,-1,4,6,-1,8,-1,-1,-1],"split_conditions":[4.6875E-2,9.250891E-2,5.15625E-1,4.9E1,-9.052132E-2,3.3333334E-1,-8.488709E-2,8.38077E-2,-3.4131415E-2],"split_indices":[3,0,3,0,0,3,0,0,0],"split_type":[0,0,0,0,0,0,0,0,0],"sum_hessian":[3.003925E1,1.02936125E1,1.9745638E1,1.1944691E1,7.800946E0,7.383695E0,4.560996E0,3.8309317E0,3.5527632E0],"tree_param":{"num_deleted":"0","num_feature":"23","num_nodes":"9","size_leaf_vector":"1"}},{"base_weights":[-1.1445391E-2,5.69974E-1,-6.846331E-1,-4.547561E-2,9.375661E-2,-2.5473574E-2,-8.673569E-2],"categories":[],"categories_nodes":[],"categories_segments":[],"categories_sizes":[],"default_left":[0,0,0,0,0,0,0],"id":38,"left_children":[1,3,5,-1,-1,-1,-1],"loss_changes":[1.1500457E1,6.3691382E0,8.4806967E-1,0E0,0E0,0E0,0E0],"parents":[2147483647,0,0,1,1,2,2],"right_children":[2,4,6,-1,-1,-1,-1],"split_conditions":[3.6E1,7E0,6.097561E-1,-4.547561E-2,9.375661E-2,-2.5473574E-2,-8.673569E-2],"split_indices":[0,0,14,0,0,0,0],"split_type":[0,0,0,0,0,0,0],"sum_hessian":[2.7385563E1,1.4776608E1,1.2608954E1,3.8386233E0,1.0937985E1,4.4748964E0,8.134059E0],"tree_param":{"num_deleted":"0","num_feature":"23","num_nodes":"7","size_leaf_vector":"1"}},{"base_weights":[6.642429E-2,9.027565E-2,-3.667722E-1,-3.8034506E-2,-8.727979E-2,3.911433E-1,-8.051976E-2,8.589661E-2,-2.4423769E-2],"categories":[],"categories_nodes":[],"categories_segments":[],"categories_sizes":[],"default_left":[0,0,0,0,0,0,0,0,0],"id":39,"left_children":[1,-1,3,5,-1,7,-1,-1,-1],"loss_changes":[9.815625E0,0E0,2.9539573E0,4.2432127E0,0E0,2.6840296E0,0E0,0E0,0E0],"parents":[2147483647,0,0,2,2,3,3,5,5],"right_children":[2,-1,4,6,-1,8,-1,-1,-1],"split_conditions":[4.6875E-2,9.027565E-2,5.15625E-1,6.4E1,-8.727979E-2,3.3333334E-1,-8.051976E-2,8.589661E-2,-2.4423769E-2],"split_indices":[3,0,3,0,0,3,0,0,0],"split_type":[0,0,0,0,0,0,0,0,0],"sum_hessian":[2.517891E1,8.221835E0,1.6957075E1,1.0930972E1,6.026103E0,7.3238807E0,3.6070912E0,4.015459E0,3.3084219E0],"tree_param":{"num_deleted":"0","num_feature":"23","num_nodes":"9","size_leaf_vector":"1"}},{"base_weights":[-3.1772703E-2,4.8687577E-1,-5.997343E-1,-4.985249E-2,9.1451265E-2,-2.2863867E-2,-8.5003726E-2],"categories":[],"categories_nodes":[],"categories_segments":[],"categories_sizes":[],"default_left":[0,0,0,0,0,0,0],"id":40,"left_children":[1,3,5,-1,-1,-1,-1],"loss_changes":[7.637214E0,6.180681E0,9.527812E-1,0E0,0E0,0E0,0E0],"parents":[2147483647,0,0,1,1,2,2],"right_children":[2,4,6,-1,-1,-1,-1],"split_conditions":[3.6E1,7E0,6.27907E-1,-4.985249E-2,9.1451265E-2,-2.2863867E-2,-8.5003726E-2],"split_indices":[0,0,14,0,0,0,0],"split_type":[0,0,0,0,0,0,0],"sum_hessian":[2.3935186E1,1.2585336E1,1.1349851E1,3.758616E0,8.826719E0,5.342534E0,6.0073166E0],"tree_param":{"num_deleted":"0","num_feature":"23","num_nodes":"7","size_leaf_vector":"1"}},{"base_weights":[1.6638162E-2,4.0055132E-1,-7.9180025E-2,7.369689E-1,-7.816493E-2,1.5412142E-2,8.891372E-2],"categories":[],"categories_nodes":[],"categories_segments":[],"categories_sizes":[],"default_left":[0,0,0,0,0,0,0],"id":41,"left_children":[1,3,-1,5,-1,-1,-1],"loss_changes":[7.7520947E0,7.299822E0,0E0,1.0758677E0,0E0,0E0,0E0],"parents":[2147483647,0,0,1,1,3,3],"right_children":[2,4,-1,6,-1,-1,-1],"split_conditions":[4.722222E-1,6.4E1,-7.9180025E-2,2.7254806E0,-7.816493E-2,1.5412142E-2,8.891372E-2],"split_indices":[3,0,0,1,0,0,0],"split_type":[0,0,0,0,0,0,0],"sum_hessian":[2.295507E1,1.5906086E1,7.0489836E0,1.2675613E1,3.2304733E0,3.0409086E0,9.634705E0],"tree_param":{"num_deleted":"0","num_feature":"23","num_nodes":"7","size_leaf_vector":"1"}},{"base_weights":[-1.4083947E-2,4.467072E-1,-7.1464205E-1,8.503903E-2,-7.7695474E-2,-8.963268E-2,-2.474056E-2],"categories":[],"categories_nodes":[],"categories_segments":[],"categories_sizes":[],"default_left":[0,0,0,0,0,0,0],"id":42,"left_children":[1,3,5,-1,-1,-1,-1],"loss_changes":[7.7771926E0,7.848905E0,5.8905506E-1,0E0,0E0,0E0,0E0],"parents":[2147483647,0,0,1,1,2,2],"right_children":[2,4,6,-1,-1,-1,-1],"split_conditions":[3.2258064E-1,6.4E1,3.8004975E0,8.503903E-2,-7.7695474E-2,-8.963268E-2,-2.474056E-2],"split_indices":[3,0,1,0,0,0,0],"split_type":[0,0,0,0,0,0,0],"sum_hessian":[2.2103172E1,1.3551829E1,8.551343E0,1.0419505E1,3.1323245E0,5.4959035E0,3.055439E0],"tree_param":{"num_deleted":"0","num_feature":"23","num_nodes":"7","size_leaf_vector":"1"}},{"base_weights":[9.666425E-3,8.744776E-2,-4.1539273E-1,-8.741155E-2,-3.293437E-2,4.4468373E-2,-7.682011E-2],"categories":[],"categories_nodes":[],"categories_segments":[],"categories_sizes":[],"default_left":[0,0,0,0,0,0,0],"id":43,"left_children":[1,-1,3,-1,5,-1,-1],"loss_changes":[8.297572E0,0E0,2.6290731E0,0E0,3.6077774E0,0E0,0E0],"parents":[2147483647,0,0,2,2,4,4],"right_children":[2,-1,4,-1,6,-1,-1],"split_conditions":[4.6875E-2,8.744776E-2,3E0,-8.741155E-2,4.9E1,4.4468373E-2,-7.682011E-2],"split_indices":[3,0,2,0,0,0,0],"split_type":[0,0,0,0,0,0,0],"sum_hessian":[2.0584356E1,6.434872E0,1.4149485E1,5.848837E0,8.300648E0,5.2715416E0,3.029106E0],"tree_param":{"num_deleted":"0","num_feature":"23","num_nodes":"7","size_leaf_vector":"1"}},{"base_weights":[-2.0061627E-2,3.2048017E-1,-6.951946E-2,-4.898987E-2,8.610413E-2],"categories":[],"categories_nodes":[],"categories_segments":[],"categories_sizes":[],"default_left":[0,0,0,0,0],"id":44,"left_children":[1,3,-1,-1,-1],"loss_changes":[4.777574E0,6.49032E0,0E0,0E0,0E0],"parents":[2147483647,0,0,1,1],"right_children":[2,4,-1,-1,-1],"split_conditions":[7.7938837E-1,2E-1,-6.951946E-2,-4.898987E-2,8.610413E-2],"split_indices":[11,12,0,0,0],"split_type":[0,0,0,0,0],"sum_hessian":[1.8811047E1,1.285314E1,5.957906E0,5.180519E0,7.6726213E0],"tree_param":{"num_deleted":"0","num_feature":"23","num_nodes":"5","size_leaf_vector":"1"}},{"base_weights":[-3.4221355E-2,4.8825607E-1,-6.086658E-1,-2.1868452E-2,8.663412E-2,-2.416479E-2,-8.271169E-2],"categories":[],"categories_nodes":[],"categories_segments":[],"categories_sizes":[],"default_left":[0,0,0,0,0,0,0],"id":45,"left_children":[1,3,5,-1,-1,-1,-1],"loss_changes":[5.8086166E0,2.9081266E0,5.370815E-1,0E0,0E0,0E0,0E0],"parents":[2147483647,0,0,1,1,2,2],"right_children":[2,4,6,-1,-1,-1,-1],"split_conditions":[3.6E1,8E0,6.27907E-1,-2.1868452E-2,8.663412E-2,-2.416479E-2,-8.271169E-2],"split_indices":[0,0,14,0,0,0,0],"split_type":[0,0,0,0,0,0,0],"sum_hessian":[1.7363222E1,9.171478E0,8.191744E0,3.3427784E0,5.8286996E0,3.8423798E0,4.349364E0],"tree_param":{"num_deleted":"0","num_feature":"23","num_nodes":"7","size_leaf_vector":"1"}},{"base_weights":[-1.2399208E-2,4.1809493E-1,-6.506575E-1,7.813389E-2,-4.5083355E-2,-7.948809E-2,-3.2086518E-2],"categories":[],"categories_nodes":[],"categories_segments":[],"categories_sizes":[],"default_left":[0,0,0,0,0,0,0],"id":46,"left_children":[1,3,5,-1,-1,-1,-1],"loss_changes":[5.261311E0,3.9671638E0,1.11445904E-1,0E0,0E0,0E0,0E0],"parents":[2147483647,0,0,1,1,2,2],"right_children":[2,4,6,-1,-1,-1,-1],"split_conditions":[3.1034482E-1,4.3E1,3.7526555E0,7.813389E-2,-4.5083355E-2,-7.948809E-2,-3.2086518E-2],"split_indices":[3,0,1,0,0,0,0],"split_type":[0,0,0,0,0,0,0],"sum_hessian":[1.715824E1,1.045289E1,6.7053494E0,7.4424677E0,3.0104225E0,3.6840208E0,3.021329E0],"tree_param":{"num_deleted":"0","num_feature":"23","num_nodes":"7","size_leaf_vector":"1"}},{"base_weights":[-3.4468921E-3,4.0705413E-1,-6.211535E-1,7.56376E-2,-3.7052356E-2,-3.3085674E-2,-7.609468E-2],"categories":[],"categories_nodes":[],"categories_segments":[],"categories_sizes":[],"default_left":[0,0,0,0,0,0,0],"id":47,"left_children":[1,3,5,-1,-1,-1,-1],"loss_changes":[4.5353613E0,3.2003126E0,3.7932158E-2,0E0,0E0,0E0,0E0],"parents":[2147483647,0,0,1,1,2,2],"right_children":[2,4,6,-1,-1,-1,-1],"split_conditions":[3.2258064E-1,4.1E1,5.78125E-1,7.56376E-2,-3.7052356E-2,-3.3085674E-2,-7.609468E-2],"split_indices":[3,0,3,0,0,0,0],"split_type":[0,0,0,0,0,0,0],"sum_hessian":[1.5888954E1,9.750331E0,6.138623E0,6.746689E0,3.0036418E0,3.0895586E0,3.0490646E0],"tree_param":{"num_deleted":"0","num_feature":"23","num_nodes":"7","size_leaf_vector":"1"}},{"base_weights":[-1.791302E-2,3.917371E-1,-6.049993E-1,7.280508E-2,-2.6241416E-2,-2.8822323E-2,-7.654278E-2],"categories":[],"categories_nodes":[],"categories_segments":[],"categories_sizes":[],"default_left":[0,0,0,0,0,0,0],"id":48,"left_children":[1,3,5,-1,-1,-1,-1],"loss_changes":[4.183942E0,2.4512067E0,1.4213705E-1,0E0,0E0,0E0,0E0],"parents":[2147483647,0,0,1,1,2,2],"right_children":[2,4,6,-1,-1,-1,-1],"split_conditions":[3.3333334E-1,4.5900326E0,5.625E-1,7.280508E-2,-2.6241416E-2,-2.8822323E-2,-7.654278E-2],"split_indices":[3,1,3,0,0,0,0],"split_type":[0,0,0,0,0,0,0],"sum_hessian":[1.54114E1,9.273436E0,6.1379647E0,6.0500174E0,3.2234182E0,3.003651E0,3.1343138E0],"tree_param":{"num_deleted":"0","num_feature":"23","num_nodes":"7","size_leaf_vector":"1"}},{"base_weights":[-8.750298E-2,3.586086E-1,-6.980794E-2,7.1696974E-2,-3.2970347E-2],"categories":[],"categories_nodes":[],"categories_segments":[],"categories_sizes":[],"default_left":[0,0,0,0,0],"id":49,"left_children":[1,3,-1,-1,-1],"loss_changes":[4.562005E0,2.655456E0,0E0,0E0,0E0],"parents":[2147483647,0,0,1,1],"right_children":[2,4,-1,-1,-1],"split_conditions":[3.3333334E-1,4.1E1,-6.980794E-2,7.1696974E-2,-3.2970347E-2],"split_indices":[3,0,0,0,0],"split_type":[0,0,0,0,0],"sum_hessian":[1.4829302E1,8.807131E0,6.02217E0,5.764356E0,3.0427752E0],"tree_param":{"num_deleted":"0","num_feature":"23","num_nodes":"5","size_leaf_vector":"1"}},{"base_weights":[-2.573257E-3,3.7066513E-1,-7.260368E-2,6.233051E-1,-1.8279232E-2,3.306258E-2,7.61667E-2],"categories":[],"categories_nodes":[],"categories_segments":[],"categories_sizes":[],"default_left":[0,0,0,0,0,0,0],"id":50,"left_children":[1,3,-1,5,-1,-1,-1],"loss_changes":[4.2289696E0,1.5591677E0,0E0,4.473591E-2,0E0,0E0,0E0],"parents":[2147483647,0,0,1,1,3,3],"right_children":[2,4,-1,6,-1,-1,-1],"split_conditions":[4.4444445E-1,4.1E1,-7.260368E-2,2.5E-1,-1.8279232E-2,3.306258E-2,7.61667E-2],"split_indices":[3,0,0,12,0,0,0],"split_type":[0,0,0,0,0,0,0],"sum_hessian":[1.3664799E1,9.335976E0,4.3288236E0,6.3233275E0,3.012648E0,3.1177888E0,3.2055385E0],"tree_param":{"num_deleted":"0","num_feature":"23","num_nodes":"7","size_leaf_vector":"1"}},{"base_weights":[5.02074E-2,8.0071926E-2,-3.0669075E-1,-6.861081E-2,3.8154244E-3],"categories":[],"categories_nodes":[],"categories_segments":[],"categories_sizes":[],"default_left":[0,0,0,0,0],"id":51,"left_children":[1,-1,3,-1,-1],"loss_changes":[4.0604677E0,0E0,1.3836887E0,0E0,0E0],"parents":[2147483647,0,0,2,2],"right_children":[2,-1,4,-1,-1],"split_conditions":[4.6875E-2,8.0071926E-2,1E0,-6.861081E-2,3.8154244E-3],"split_indices":[3,0,17,0,0],"split_type":[0,0,0,0,0],"sum_hessian":[1.3242319E1,3.866985E0,9.375334E0,3.9927156E0,5.382618E0],"tree_param":{"num_deleted":"0","num_feature":"23","num_nodes":"5","size_leaf_vector":"1"}},{"base_weights":[-2.8750226E-2,3.4936658E-1,-5.516541E-2,6.663887E-2,-1.9475056E-2],"categories":[],"categories_nodes":[],"categories_segments":[],"categories_sizes":[],"default_left":[0,0,0,0,0],"id":52,"left_children":[1,3,-1,-1,-1],"loss_changes":[3.0102887E0,1.6619656E0,0E0,0E0,0E0],"parents":[2147483647,0,0,1,1],"right_children":[2,4,-1,-1,-1],"split_conditions":[3.2258064E-1,4E1,-5.516541E-2,6.663887E-2,-1.9475056E-2],"split_indices":[3,0,0,0,0],"split_type":[0,0,0,0,0],"sum_hessian":[1.32503395E1,7.8823843E0,5.367955E0,4.8385544E0,3.0438302E0],"tree_param":{"num_deleted":"0","num_feature":"23","num_nodes":"5","size_leaf_vector":"1"}},{"base_weights":[-3.6321294E-2,3.213795E-1,-5.2493084E-2,6.443671E-2,-1.7061628E-2],"categories":[],"categories_nodes":[],"categories_segments":[],"categories_sizes":[],"default_left":[0,0,0,0,0],"id":53,"left_children":[1,3,-1,-1,-1],"loss_changes":[2.5379548E0,1.4521853E0,0E0,0E0,0E0],"parents":[2147483647,0,0,1,1],"right_children":[2,4,-1,-1,-1],"split_conditions":[3.3333334E-1,2.65625E-1,-5.2493084E-2,6.443671E-2,-1.7061628E-2],"split_indices":[3,4,0,0,0],"split_type":[0,0,0,0,0],"sum_hessian":[1.2555938E1,7.446655E0,5.109283E0,4.3084946E0,3.1381602E0],"tree_param":{"num_deleted":"0","num_feature":"23","num_nodes":"5","size_leaf_vector":"1"}},{"base_weights":[-1.949302E-2,3.8121875E-2,-4.0301743E-1,-8.510332E-3,-6.1377782E-2],"categories":[],"categories_nodes":[],"categories_segments":[],"categories_sizes":[],"default_left":[0,0,0,0,0],"id":54,"left_children":[1,-1,3,-1,-1],"loss_changes":[2.162347E0,0E0,4.2781878E-1,0E0,0E0],"parents":[2147483647,0,0,2,2],"right_children":[2,-1,4,-1,-1],"split_conditions":[3.6E1,3.8121875E-2,6.145833E-1,-8.510332E-3,-6.1377782E-2],"split_indices":[0,0,14,0,0],"split_type":[0,0,0,0,0],"sum_hessian":[1.2070494E1,5.905918E0,6.1645756E0,3.0171912E0,3.1473844E0],"tree_param":{"num_deleted":"0","num_feature":"23","num_nodes":"5","size_leaf_vector":"1"}},{"base_weights":[5.421909E-3,-3.811627E-1,4.3367438E-2,-3.99263E-3,-6.3012384E-2],"categories":[],"categories_nodes":[],"categories_segments":[],"categories_sizes":[],"default_left":[0,0,0,0,0],"id":55,"left_children":[1,3,-1,-1,-1],"loss_changes":[2.2560985E0,5.8393216E-1,0E0,0E0,0E0],"parents":[2147483647,0,0,1,1],"right_children":[2,4,-1,-1,-1],"split_conditions":[4.4444446E-2,7.69773E-1,4.3367438E-2,-3.99263E-3,-6.3012384E-2],"split_indices":[5,11,0,0,0],"split_type":[0,0,0,0,0],"sum_hessian":[1.1628962E1,6.169603E0,5.459358E0,3.0919797E0,3.0776234E0],"tree_param":{"num_deleted":"0","num_feature":"23","num_nodes":"5","size_leaf_vector":"1"}},{"base_weights":[5.4846708E-2,4.2229372E-1,-4.6961483E-2,8.189895E-2,-1.5548341E-2],"categories":[],"categories_nodes":[],"categories_segments":[],"categories_sizes":[],"default_left":[0,0,0,0,0],"id":56,"left_children":[1,3,-1,-1,-1],"loss_changes":[2.6539247E0,1.9653838E0,0E0,0E0,0E0],"parents":[2147483647,0,0,1,1],"right_children":[2,4,-1,-1,-1],"split_conditions":[3.3333334E-1,2.5E-1,-4.6961483E-2,8.189895E-2,-1.5548341E-2],"split_indices":[3,4,0,0,0],"split_type":[0,0,0,0,0],"sum_hessian":[1.1742391E1,7.0193295E0,4.723061E0,3.914317E0,3.1050124E0],"tree_param":{"num_deleted":"0","num_feature":"23","num_nodes":"5","size_leaf_vector":"1"}},{"base_weights":[-5.882402E-2,1.9011916E-1,-6.175181E-2,3.8912814E-2,-1.495114E-2],"categories":[],"categories_nodes":[],"categories_segments":[],"categories_sizes":[],"default_left":[0,0,0,0,0],"id":57,"left_children":[1,3,-1,-1,-1],"loss_changes":[1.8304441E0,6.857365E-1,0E0,0E0,0E0],"parents":[2147483647,0,0,1,1],"right_children":[2,4,-1,-1,-1],"split_conditions":[4.5E-1,3E-1,-6.175181E-2,3.8912814E-2,-1.495114E-2],"split_indices":[3,9,0,0,0],"split_type":[0,0,0,0,0],"sum_hessian":[1.1316682E1,8.284831E0,3.031851E0,5.1319737E0,3.1528568E0],"tree_param":{"num_deleted":"0","num_feature":"23","num_nodes":"5","size_leaf_vector":"1"}},{"base_weights":[-7.229008E-2,-3.9992812E-1,3.490638E-2,-1.8570058E-2,-5.1475912E-2],"categories":[],"categories_nodes":[],"categories_segments":[],"categories_sizes":[],"default_left":[0,0,0,0,0],"id":58,"left_children":[1,3,-1,-1,-1],"loss_changes":[1.7739055E0,7.970452E-2,0E0,0E0,0E0],"parents":[2147483647,0,0,1,1],"right_children":[2,4,-1,-1,-1],"split_conditions":[4.4444446E-2,4E1,3.490638E-2,-1.8570058E-2,-5.1475912E-2],"split_indices":[5,0,0,0,0],"split_type":[0,0,0,0,0],"sum_hessian":[1.08383665E1,6.1258516E0,4.712515E0,3.0510352E0,3.0748165E0],"tree_param":{"num_deleted":"0","num_feature":"23","num_nodes":"5","size_leaf_vector":"1"}},{"base_weights":[-1.0020407E-1,2.4178286E-1,-5.371846E-2,5.252406E-2,-1.0373225E-2],"categories":[],"categories_nodes":[],"categories_segments":[],"categories_sizes":[],"default_left":[0,0,0,0,0],"id":59,"left_children":[1,3,-1,-1,-1],"loss_changes":[1.8294275E0,7.4685067E-1,0E0,0E0,0E0],"parents":[2147483647,0,0,1,1],"right_children":[2,4,-1,-1,-1],"split_conditions":[3.3333334E-1,1.5384616E-1,-5.371846E-2,5.252406E-2,-1.0373225E-2],"split_indices":[3,4,0,0,0],"split_type":[0,0,0,0,0],"sum_hessian":[1.0372638E1,6.0693655E0,4.303272E0,3.048354E0,3.0210116E0],"tree_param":{"num_deleted":"0","num_feature":"23","num_nodes":"5","size_leaf_vector":"1"}},{"base_weights":[1.0968069E-2,-3.358472E-1,4.1492406E-2,-5.9274295E-3,-5.2695483E-2],"categories":[],"categories_nodes":[],"categories_segments":[],"categories_sizes":[],"default_left":[0,0,0,0,0],"id":60,"left_children":[1,3,-1,-1,-1],"loss_changes":[1.8286657E0,3.40896E-1,0E0,0E0,0E0],"parents":[2147483647,0,0,1,1],"right_children":[2,4,-1,-1,-1],"split_conditions":[4.4444446E-2,2.0588236E-1,4.1492406E-2,-5.9274295E-3,-5.2695483E-2],"split_indices":[5,3,0,0,0],"split_type":[0,0,0,0,0],"sum_hessian":[1.1058084E1,6.040572E0,5.0175114E0,3.00372E0,3.0368521E0],"tree_param":{"num_deleted":"0","num_feature":"23","num_nodes":"5","size_leaf_vector":"1"}},{"base_weights":[-4.0208153E-2,2.900255E-1,-4.92012E-2,5.5756863E-2,-6.713316E-3],"categories":[],"categories_nodes":[],"categories_segments":[],"categories_sizes":[],"default_left":[0,0,0,0,0],"id":61,"left_children":[1,3,-1,-1,-1],"loss_changes":[1.8837094E0,7.417305E-1,0E0,0E0,0E0],"parents":[2147483647,0,0,1,1],"right_children":[2,4,-1,-1,-1],"split_conditions":[3.3333334E-1,2.5E-1,-4.92012E-2,5.5756863E-2,-6.713316E-3],"split_indices":[3,4,0,0,0],"split_type":[0,0,0,0,0],"sum_hessian":[1.0668925E1,6.3705893E0,4.298336E0,3.3214269E0,3.0491624E0],"tree_param":{"num_deleted":"0","num_feature":"23","num_nodes":"5","size_leaf_vector":"1"}},{"base_weights":[-1.1044035E-2,3.2358438E-2,-3.693019E-2],"categories":[],"categories_nodes":[],"categories_segments":[],"categories_sizes":[],"default_left":[0,0,0],"id":62,"left_children":[1,-1,-1],"loss_changes":[1.478157E0,0E0,0E0],"parents":[2147483647,0,0],"right_children":[2,-1,-1],"split_conditions":[3.6E1,3.2358438E-2,-3.693019E-2],"split_indices":[0,0,0],"split_type":[0,0,0],"sum_hessian":[1.0333165E1,5.3928204E0,4.9403453E0],"tree_param":{"num_deleted":"0","num_feature":"23","num_nodes":"3","size_leaf_vector":"1"}},{"base_weights":[-2.4854653E-2,2.8207898E-1,-4.6573963E-2,5.2038826E-2,-2.4637084E-3],"categories":[],"categories_nodes":[],"categories_segments":[],"categories_sizes":[],"default_left":[0,0,0,0,0],"id":63,"left_children":[1,3,-1,-1,-1],"loss_changes":[1.6051135E0,5.276502E-1,0E0,0E0,0E0],"parents":[2147483647,0,0,1,1],"right_children":[2,4,-1,-1,-1],"split_conditions":[3.3333334E-1,2.5E-1,-4.6573963E-2,5.2038826E-2,-2.4637084E-3],"split_indices":[3,4,0,0,0],"split_type":[0,0,0,0,0],"sum_hessian":[9.890569E0,6.043456E0,3.8471124E0,3.008948E0,3.0345078E0],"tree_param":{"num_deleted":"0","num_feature":"23","num_nodes":"5","size_leaf_vector":"1"}},{"base_weights":[7.915828E-2,4.571646E-2,-3.2188956E-2],"categories":[],"categories_nodes":[],"categories_segments":[],"categories_sizes":[],"default_left":[0,0,0],"id":64,"left_children":[1,-1,-1],"loss_changes":[1.8330196E0,0E0,0E0],"parents":[2147483647,0,0],"right_children":[2,-1,-1],"split_conditions":[3.6E1,4.571646E-2,-3.2188956E-2],"split_indices":[0,0,0],"split_type":[0,0,0],"sum_hessian":[1.012057E1,5.1379175E0,4.9826527E0],"tree_param":{"num_deleted":"0","num_feature":"23","num_nodes":"3","size_leaf_vector":"1"}},{"base_weights":[-3.603272E-2,-4.4360884E-2,3.1452235E-2],"categories":[],"categories_nodes":[],"categories_segments":[],"categories_sizes":[],"default_left":[0,0,0],"id":65,"left_children":[1,-1,-1],"loss_changes":[1.6447374E0,0E0,0E0],"parents":[2147483647,0,0],"right_children":[2,-1,-1],"split_conditions":[2.4390243E-2,-4.4360884E-2,3.1452235E-2],"split_indices":[5,0,0],"split_type":[0,0,0],"sum_hessian":[9.534959E0,4.2861643E0,5.248795E0],"tree_param":{"num_deleted":"0","num_feature":"23","num_nodes":"3","size_leaf_vector":"1"}},{"base_weights":[-3.782781E-2,-3.9635684E-2,2.6913226E-2],"categories":[],"categories_nodes":[],"categories_segments":[],"categories_sizes":[],"default_left":[0,0,0],"id":66,"left_children":[1,-1,-1],"loss_changes":[1.2843593E0,0E0,0E0],"parents":[2147483647,0,0],"right_children":[2,-1,-1],"split_conditions":[2.4390243E-2,-3.9635684E-2,2.6913226E-2],"split_indices":[5,0,0],"split_type":[0,0,0],"sum_hessian":[9.700983E0,4.340293E0,5.36069E0],"tree_param":{"num_deleted":"0","num_feature":"23","num_nodes":"3","size_leaf_vector":"1"}},{"base_weights":[-2.6658313E-2,-3.422348E-2,3.3253457E-2],"categories":[],"categories_nodes":[],"categories_segments":[],"categories_sizes":[],"default_left":[0,0,0],"id":67,"left_children":[1,-1,-1],"loss_changes":[1.2551578E0,0E0,0E0],"parents":[2147483647,0,0],"right_children":[2,-1,-1],"split_conditions":[4.4444446E-2,-3.422348E-2,3.3253457E-2],"split_indices":[5,0,0],"split_type":[0,0,0],"sum_hessian":[9.069029E0,4.852752E0,4.216276E0],"tree_param":{"num_deleted":"0","num_feature":"23","num_nodes":"3","size_leaf_vector":"1"}},{"base_weights":[-1.3326716E-2,2.467083E-2,-4.123504E-2],"categories":[],"categories_nodes":[],"categories_segments":[],"categories_sizes":[],"default_left":[0,0,0],"id":68,"left_children":[1,-1,-1],"loss_changes":[1.1384935E0,0E0,0E0],"parents":[2147483647,0,0],"right_children":[2,-1,-1],"split_conditions":[3.1034482E-1,2.467083E-2,-4.123504E-2],"split_indices":[3,0,0],"split_type":[0,0,0],"sum_hessian":[8.991925E0,5.6752253E0,3.3167E0],"tree_param":{"num_deleted":"0","num_feature":"23","num_nodes":"3","size_leaf_vector":"1"}},{"base_weights":[-6.5001644E-2,-4.3394238E-2,2.3697255E-2],"categories":[],"categories_nodes":[],"categories_segments":[],"categories_sizes":[],"default_left":[0,0,0],"id":69,"left_children":[1,-1,-1],"loss_changes":[1.2364311E0,0E0,0E0],"parents":[2147483647,0,0],"right_children":[2,-1,-1],"split_conditions":[1E0,-4.3394238E-2,2.3697255E-2],"split_indices":[17,0,0],"split_type":[0,0,0],"sum_hessian":[9.174963E0,3.932889E0,5.2420745E0],"tree_param":{"num_deleted":"0","num_feature":"23","num_nodes":"3","size_leaf_vector":"1"}},{"base_weights":[3.5386935E-2,2.7471364E-1,-4.0954676E-2,-2.3041688E-2,7.127196E-2],"categories":[],"categories_nodes":[],"categories_segments":[],"categories_sizes":[],"default_left":[0,0,0,0,0],"id":70,"left_children":[1,3,-1,-1,-1],"loss_changes":[1.212858E0,1.7832732E0,0E0,0E0,0E0],"parents":[2147483647,0,0,1,1],"right_children":[2,4,-1,-1,-1],"split_conditions":[7.7938837E-1,2.5E-1,-4.0954676E-2,-2.3041688E-2,7.127196E-2],"split_indices":[11,12,0,0,0],"split_type":[0,0,0,0,0],"sum_hessian":[9.333427E0,6.317736E0,3.0156918E0,3.1541514E0,3.1635845E0],"tree_param":{"num_deleted":"0","num_feature":"23","num_nodes":"5","size_leaf_vector":"1"}},{"base_weights":[1.3898796E-3,3.3203665E-2,-3.0947907E-2],"categories":[],"categories_nodes":[],"categories_segments":[],"categories_sizes":[],"default_left":[0,0,0],"id":71,"left_children":[1,-1,-1],"loss_changes":[1.1098197E0,0E0,0E0],"parents":[2147483647,0,0],"right_children":[2,-1,-1],"split_conditions":[3.6E1,3.3203665E-2,-3.0947907E-2],"split_indices":[0,0,0],"split_type":[0,0,0],"sum_hessian":[8.797478E0,4.23013E0,4.567348E0],"tree_param":{"num_deleted":"0","num_feature":"23","num_nodes":"3","size_leaf_vector":"1"}},{"base_weights":[2.0211909E-2,3.5855737E-2,-2.2830002E-2],"categories":[],"categories_nodes":[],"categories_segments":[],"categories_sizes":[],"default_left":[0,0,0],"id":72,"left_children":[1,-1,-1],"loss_changes":[9.051499E-1,0E0,0E0],"parents":[2147483647,0,0],"right_children":[2,-1,-1],"split_conditions":[6.4044946E-1,3.5855737E-2,-2.2830002E-2],"split_indices":[14,0,0],"split_type":[0,0,0],"sum_hessian":[8.791424E0,3.5353193E0,5.256105E0],"tree_param":{"num_deleted":"0","num_feature":"23","num_nodes":"3","size_leaf_vector":"1"}},{"base_weights":[-4.681933E-3,-3.563371E-2,2.694813E-2],"categories":[],"categories_nodes":[],"categories_segments":[],"categories_sizes":[],"default_left":[0,0,0],"id":73,"left_children":[1,-1,-1],"loss_changes":[1.0414172E0,0E0,0E0],"parents":[2147483647,0,0],"right_children":[2,-1,-1],"split_conditions":[1E0,-3.563371E-2,2.694813E-2],"split_indices":[17,0,0],"split_type":[0,0,0],"sum_hessian":[8.805852E0,3.7264278E0,5.079424E0],"tree_param":{"num_deleted":"0","num_feature":"23","num_nodes":"3","size_leaf_vector":"1"}},{"base_weights":[1.0686529E-2,3.2777745E-2,-2.9479131E-2],"categories":[],"categories_nodes":[],"categories_segments":[],"categories_sizes":[],"default_left":[0,0,0],"id":74,"left_children":[1,-1,-1],"loss_changes":[1.0299871E0,0E0,0E0],"parents":[2147483647,0,0],"right_children":[2,-1,-1],"split_conditions":[3.6E1,3.2777745E-2,-2.9479131E-2],"split_indices":[0,0,0],"split_type":[0,0,0],"sum_hessian":[8.635765E0,4.2015204E0,4.434245E0],"tree_param":{"num_deleted":"0","num_feature":"23","num_nodes":"3","size_leaf_vector":"1"}},{"base_weights":[-2.993338E-2,-3.5739657E-2,2.5305444E-2],"categories":[],"categories_nodes":[],"categories_segments":[],"categories_sizes":[],"default_left":[0,0,0],"id":75,"left_children":[1,-1,-1],"loss_changes":[9.755897E-1,0E0,0E0],"parents":[2147483647,0,0],"right_children":[2,-1,-1],"split_conditions":[2.4390243E-2,-3.5739657E-2,2.5305444E-2],"split_indices":[5,0,0],"split_type":[0,0,0],"sum_hessian":[8.55182E0,3.8424907E0,4.709329E0],"tree_param":{"num_deleted":"0","num_feature":"23","num_nodes":"3","size_leaf_vector":"1"}},{"base_weights":[5.770484E-2,4.4729006E-2,-3.534862E-2],"categories":[],"categories_nodes":[],"categories_segments":[],"categories_sizes":[],"default_left":[0,0,0],"id":76,"left_children":[1,-1,-1],"loss_changes":[1.6675776E0,0E0,0E0],"parents":[2147483647,0,0],"right_children":[2,-1,-1],"split_conditions":[3.6E1,4.4729006E-2,-3.534862E-2],"split_indices":[0,0,0],"split_type":[0,0,0],"sum_hessian":[8.422745E0,4.27992E0,4.142825E0],"tree_param":{"num_deleted":"0","num_feature":"23","num_nodes":"3","size_leaf_vector":"1"}},{"base_weights":[2.5045019E-2,-3.4739867E-2,3.1644166E-2],"categories":[],"categories_nodes":[],"categories_segments":[],"categories_sizes":[],"default_left":[0,0,0],"id":77,"left_children":[1,-1,-1],"loss_changes":[1.1763327E0,0E0,0E0],"parents":[2147483647,0,0],"right_children":[2,-1,-1],"split_conditions":[1E0,-3.4739867E-2,3.1644166E-2],"split_indices":[17,0,0],"split_type":[0,0,0],"sum_hessian":[8.825972E0,3.7898517E0,5.03612E0],"tree_param":{"num_deleted":"0","num_feature":"23","num_nodes":"3","size_leaf_vector":"1"}},{"base_weights":[8.936782E-3,3.0775074E-2,-2.7843028E-2],"categories":[],"categories_nodes":[],"categories_segments":[],"categories_sizes":[],"default_left":[0,0,0],"id":78,"left_children":[1,-1,-1],"loss_changes":[8.826177E-1,0E0,0E0],"parents":[2147483647,0,0],"right_children":[2,-1,-1],"split_conditions":[3.6E1,3.0775074E-2,-2.7843028E-2],"split_indices":[0,0,0],"split_type":[0,0,0],"sum_hessian":[8.280741E0,4.024744E0,4.2559967E0],"tree_param":{"num_deleted":"0","num_feature":"23","num_nodes":"3","size_leaf_vector":"1"}},{"base_weights":[-2.7326258E-2,2.2816366E-2,-3.7806716E-2],"categories":[],"categories_nodes":[],"categories_segments":[],"categories_sizes":[],"default_left":[0,0,0],"id":79,"left_children":[1,-1,-1],"loss_changes":[9.090296E-1,0E0,0E0],"parents":[2147483647,0,0],"right_children":[2,-1,-1],"split_conditions":[3.3333334E-1,2.2816366E-2,-3.7806716E-2],"split_indices":[3,0,0],"split_type":[0,0,0],"sum_hessian":[8.1815815E0,4.9357314E0,3.2458498E0],"tree_param":{"num_deleted":"0","num_feature":"23","num_nodes":"3","size_leaf_vector":"1"}},{"base_weights":[-5.052141E-2,-3.8075846E-2,2.2388468E-2],"categories":[],"categories_nodes":[],"categories_segments":[],"categories_sizes":[],"default_left":[0,0,0],"id":80,"left_children":[1,-1,-1],"loss_changes":[8.988314E-1,0E0,0E0],"parents":[2147483647,0,0],"right_children":[2,-1,-1],"split_conditions":[1E0,-3.8075846E-2,2.2388468E-2],"split_indices":[17,0,0],"split_type":[0,0,0],"sum_hessian":[7.978084E0,3.4448128E0,4.5332713E0],"tree_param":{"num_deleted":"0","num_feature":"23","num_nodes":"3","size_leaf_vector":"1"}},{"base_weights":[2.5093652E-2,3.6601294E-2,-2.2063922E-2],"categories":[],"categories_nodes":[],"categories_segments":[],"categories_sizes":[],"default_left":[0,0,0],"id":81,"left_children":[1,-1,-1],"loss_changes":[8.4393364E-1,0E0,0E0],"parents":[2147483647,0,0],"right_children":[2,-1,-1],"split_conditions":[6.363636E-1,3.6601294E-2,-2.2063922E-2],"split_indices":[14,0,0],"split_type":[0,0,0],"sum_hessian":[8.109833E0,3.191964E0,4.917869E0],"tree_param":{"num_deleted":"0","num_feature":"23","num_nodes":"3","size_leaf_vector":"1"}},{"base_weights":[1.1915698E-1,3.5636965E-2,-2.7698254E-2],"categories":[],"categories_nodes":[],"categories_segments":[],"categories_sizes":[],"default_left":[0,0,0],"id":82,"left_children":[1,-1,-1],"loss_changes":[9.6702063E-1,0E0,0E0],"parents":[2147483647,0,0],"right_children":[2,-1,-1],"split_conditions":[2.9545453E-1,3.5636965E-2,-2.7698254E-2],"split_indices":[3,0,0],"split_type":[0,0,0],"sum_hessian":[8.240382E0,5.2168617E0,3.02352E0],"tree_param":{"num_deleted":"0","num_feature":"23","num_nodes":"3","size_leaf_vector":"1"}},{"base_weights":[6.826594E-2,3.7003856E-2,-2.1468043E-2],"categories":[],"categories_nodes":[],"categories_segments":[],"categories_sizes":[],"default_left":[0,0,0],"id":83,"left_children":[1,-1,-1],"loss_changes":[8.664212E-1,0E0,0E0],"parents":[2147483647,0,0],"right_children":[2,-1,-1],"split_conditions":[3.6E1,3.7003856E-2,-2.1468043E-2],"split_indices":[0,0,0],"split_type":[0,0,0],"sum_hessian":[8.216805E0,3.8271773E0,4.3896284E0],"tree_param":{"num_deleted":"0","num_feature":"23","num_nodes":"3","size_leaf_vector":"1"}},{"base_weights":[-4.2439956E-2,-3.4393344E-2,2.1933086E-2],"categories":[],"categories_nodes":[],"categories_segments":[],"categories_sizes":[],"default_left":[0,0,0],"id":84,"left_children":[1,-1,-1],"loss_changes":[7.7767175E-1,0E0,0E0],"parents":[2147483647,0,0],"right_children":[2,-1,-1],"split_conditions":[1E0,-3.4393344E-2,2.1933086E-2],"split_indices":[17,0,0],"split_type":[0,0,0],"sum_hessian":[7.897833E0,3.5245614E0,4.3732715E0],"tree_param":{"num_deleted":"0","num_feature":"23","num_nodes":"3","size_leaf_vector":"1"}},{"base_weights":[-8.347336E-2,1.9664466E-2,-3.6531564E-2],"categories":[],"categories_nodes":[],"categories_segments":[],"categories_sizes":[],"default_left":[0,0,0],"id":85,"left_children":[1,-1,-1],"loss_changes":[7.288207E-1,0E0,0E0],"parents":[2147483647,0,0],"right_children":[2,-1,-1],"split_conditions":[3.6E1,1.9664466E-2,-3.6531564E-2],"split_indices":[0,0,0],"split_type":[0,0,0],"sum_hessian":[7.3216066E0,3.8236432E0,3.4979632E0],"tree_param":{"num_deleted":"0","num_feature":"23","num_nodes":"3","size_leaf_vector":"1"}},{"base_weights":[-5.057943E-3,-3.63809E-2,2.655443E-2],"categories":[],"categories_nodes":[],"categories_segments":[],"categories_sizes":[],"default_left":[0,0,0],"id":86,"left_children":[1,-1,-1],"loss_changes":[9.825694E-1,0E0,0E0],"parents":[2147483647,0,0],"right_children":[2,-1,-1],"split_conditions":[1E0,-3.63809E-2,2.655443E-2],"split_indices":[17,0,0],"split_type":[0,0,0],"sum_hessian":[8.126212E0,3.3459182E0,4.780294E0],"tree_param":{"num_deleted":"0","num_feature":"23","num_nodes":"3","size_leaf_vector":"1"}},{"base_weights":[3.4099914E-2,3.0955613E-2,-2.2948936E-2],"categories":[],"categories_nodes":[],"categories_segments":[],"categories_sizes":[],"default_left":[0,0,0],"id":87,"left_children":[1,-1,-1],"loss_changes":[7.216905E-1,0E0,0E0],"parents":[2147483647,0,0],"right_children":[2,-1,-1],"split_conditions":[3.6E1,3.0955613E-2,-2.2948936E-2],"split_indices":[0,0,0],"split_type":[0,0,0],"sum_hessian":[7.9612284E0,3.8077075E0,4.1535206E0],"tree_param":{"num_deleted":"0","num_feature":"23","num_nodes":"3","size_leaf_vector":"1"}},{"base_weights":[-7.650214E-2,1.9299252E-2,-3.059907E-2],"categories":[],"categories_nodes":[],"categories_segments":[],"categories_sizes":[],"default_left":[0,0,0],"id":88,"left_children":[1,-1,-1],"loss_changes":[5.494204E-1,0E0,0E0],"parents":[2147483647,0,0],"right_children":[2,-1,-1],"split_conditions":[3.6E1,1.9299252E-2,-3.059907E-2],"split_indices":[0,0,0],"split_type":[0,0,0],"sum_hessian":[6.928839E0,3.2598E0,3.6690392E0],"tree_param":{"num_deleted":"0","num_feature":"23","num_nodes":"3","size_leaf_vector":"1"}},{"base_weights":[-8.072118E-3,-3.319396E-2,2.5064338E-2],"categories":[],"categories_nodes":[],"categories_segments":[],"categories_sizes":[],"default_left":[0,0,0],"id":89,"left_children":[1,-1,-1],"loss_changes":[8.241171E-1,0E0,0E0],"parents":[2147483647,0,0],"right_children":[2,-1,-1],"split_conditions":[1E0,-3.319396E-2,2.5064338E-2],"split_indices":[17,0,0],"split_type":[0,0,0],"sum_hessian":[7.842617E0,3.3570879E0,4.485529E0],"tree_param":{"num_deleted":"0","num_feature":"23","num_nodes":"3","size_leaf_vector":"1"}},{"base_weights":[1.8118383E-2,-2.3573471E-2,2.7008325E-2],"categories":[],"categories_nodes":[],"categories_segments":[],"categories_sizes":[],"default_left":[0,0,0],"id":90,"left_children":[1,-1,-1],"loss_changes":[6.133838E-1,0E0,0E0],"parents":[2147483647,0,0],"right_children":[2,-1,-1],"split_conditions":[2.8571429E-2,-2.3573471E-2,2.7008325E-2],"split_indices":[4,0,0],"split_type":[0,0,0],"sum_hessian":[7.594404E0,3.815114E0,3.7792902E0],"tree_param":{"num_deleted":"0","num_feature":"23","num_nodes":"3","size_leaf_vector":"1"}},{"base_weights":[1.0924395E-1,3.3465397E-2,-1.9348852E-2],"categories":[],"categories_nodes":[],"categories_segments":[],"categories_sizes":[],"default_left":[0,0,0],"id":91,"left_children":[1,-1,-1],"loss_changes":[6.3808936E-1,0E0,0E0],"parents":[2147483647,0,0],"right_children":[2,-1,-1],"split_conditions":[2.34375E-1,3.3465397E-2,-1.9348852E-2],"split_indices":[3,0,0],"split_type":[0,0,0],"sum_hessian":[7.4019146E0,4.1823535E0,3.219561E0],"tree_param":{"num_deleted":"0","num_feature":"23","num_nodes":"3","size_leaf_vector":"1"}},{"base_weights":[-2.222765E-2,-3.0167932E-2,3.0151889E-2],"categories":[],"categories_nodes":[],"categories_segments":[],"categories_sizes":[],"default_left":[0,0,0],"id":92,"left_children":[1,-1,-1],"loss_changes":[8.599752E-1,0E0,0E0],"parents":[2147483647,0,0],"right_children":[2,-1,-1],"split_conditions":[4.4444446E-2,-3.0167932E-2,3.0151889E-2],"split_indices":[5,0,0],"split_type":[0,0,0],"sum_hessian":[7.50006E0,4.0619907E0,3.4380689E0],"tree_param":{"num_deleted":"0","num_feature":"23","num_nodes":"3","size_leaf_vector":"1"}},{"base_weights":[-2.7951395E-2,-2.6826544E-2,2.4687162E-2],"categories":[],"categories_nodes":[],"categories_segments":[],"categories_sizes":[],"default_left":[0,0,0],"id":93,"left_children":[1,-1,-1],"loss_changes":[6.217561E-1,0E0,0E0],"parents":[2147483647,0,0],"right_children":[2,-1,-1],"split_conditions":[4.4444446E-2,-2.6826544E-2,2.4687162E-2],"split_indices":[5,0,0],"split_type":[0,0,0],"sum_hessian":[7.4115195E0,3.966738E0,3.4447813E0],"tree_param":{"num_deleted":"0","num_feature":"23","num_nodes":"3","size_leaf_vector":"1"}},{"base_weights":[2.4688183E-3,2.8810307E-2,-2.6903832E-2],"categories":[],"categories_nodes":[],"categories_segments":[],"categories_sizes":[],"default_left":[0,0,0],"id":94,"left_children":[1,-1,-1],"loss_changes":[7.2085357E-1,0E0,0E0],"parents":[2147483647,0,0],"right_children":[2,-1,-1],"split_conditions":[3.6E1,2.8810307E-2,-2.6903832E-2],"split_indices":[0,0,0],"split_type":[0,0,0],"sum_hessian":[7.2956595E0,3.525546E0,3.7701132E0],"tree_param":{"num_deleted":"0","num_feature":"23","num_nodes":"3","size_leaf_vector":"1"}},{"base_weights":[-1.0786634E-2,2.5175897E-2,-2.5139049E-2],"categories":[],"categories_nodes":[],"categories_segments":[],"categories_sizes":[],"default_left":[0,0,0],"id":95,"left_children":[1,-1,-1],"loss_changes":[5.778605E-1,0E0,0E0],"parents":[2147483647,0,0],"right_children":[2,-1,-1],"split_conditions":[3.6E1,2.5175897E-2,-2.5139049E-2],"split_indices":[0,0,0],"split_type":[0,0,0],"sum_hessian":[7.145874E0,3.3949552E0,3.750919E0],"tree_param":{"num_deleted":"0","num_feature":"23","num_nodes":"3","size_leaf_vector":"1"}},{"base_weights":[1.0834917E-2,2.7029147E-2,-2.4162887E-2],"categories":[],"categories_nodes":[],"categories_segments":[],"categories_sizes":[],"default_left":[0,0,0],"id":96,"left_children":[1,-1,-1],"loss_changes":[5.8870345E-1,0E0,0E0],"parents":[2147483647,0,0],"right_children":[2,-1,-1],"split_conditions":[3.6E1,2.7029147E-2,-2.4162887E-2],"split_indices":[0,0,0],"split_type":[0,0,0],"sum_hessian":[6.9903235E0,3.412593E0,3.5777304E0],"tree_param":{"num_deleted":"0","num_feature":"23","num_nodes":"3","size_leaf_vector":"1"}},{"base_weights":[4.4702087E-3,3.9721023E-2,-2.78471E-2],"categories":[],"categories_nodes":[],"categories_segments":[],"categories_sizes":[],"default_left":[0,0,0],"id":97,"left_children":[1,-1,-1],"loss_changes":[1.0708758E0,0E0,0E0],"parents":[2147483647,0,0],"right_children":[2,-1,-1],"split_conditions":[6.4044946E-1,3.9721023E-2,-2.78471E-2],"split_indices":[14,0,0],"split_type":[0,0,0],"sum_hessian":[7.6415057E0,3.0307605E0,4.6107454E0],"tree_param":{"num_deleted":"0","num_feature":"23","num_nodes":"3","size_leaf_vector":"1"}},{"base_weights":[-2.192061E-2,2.2366934E-2,-2.4891129E-2],"categories":[],"categories_nodes":[],"categories_segments":[],"categories_sizes":[],"default_left":[0,0,0],"id":98,"left_children":[1,-1,-1],"loss_changes":[4.8505962E-1,0E0,0E0],"parents":[2147483647,0,0],"right_children":[2,-1,-1],"split_conditions":[3.6E1,2.2366934E-2,-2.4891129E-2],"split_indices":[0,0,0],"split_type":[0,0,0],"sum_hessian":[6.702453E0,3.2263608E0,3.476092E0],"tree_param":{"num_deleted":"0","num_feature":"23","num_nodes":"3","size_leaf_vector":"1"}},{"base_weights":[1.551306E-1,3.9740425E-2,-7.339494E-3],"categories":[],"categories_nodes":[],"categories_segments":[],"categories_sizes":[],"default_left":[0,0,0],"id":99,"left_children":[1,-1,-1],"loss_changes":[4.7502118E-1,0E0,0E0],"parents":[2147483647,0,0],"right_children":[2,-1,-1],"split_conditions":[6.4044946E-1,3.9740425E-2,-7.339494E-3],"split_indices":[14,0,0],"split_type":[0,0,0],"sum_hessian":[7.0528827E0,3.064757E0,3.9881258E0],"tree_param":{"num_deleted":"0","num_feature":"23","num_nodes":"3","size_leaf_vector":"1"}}]},"name":"gbtree"},"learner_model_param":{"base_score":"[5.9868765E-1]","boost_from_average":"1","num_class":"0","num_feature":"23","num_target":"1"},"objective":{"name":"binary:logistic","reg_loss_param":{"scale_pos_weight":"1.56513405"}}},"version":[3,1,2]}